cup 0.2853 1.1604 0.43643 -0.79668 0.23233 0.22757 -0.27564 0.26498 0.023262 -0.46187 1.0063 -0.10185 0.12593 -0.020709 -0.91027 0.50722 -0.20742 0.3516 -0.57072 -0.46228 0.067776 -0.60861 -0.28019 0.0084597 -0.96253 -0.72114 -0.35653 0.73386 -0.76149 -0.4418 -0.67738 -0.37454 0.39863 -0.067284 -1.8498 0.68255 0.55923 0.38049 -0.011131 -0.29923 -0.13439 -0.66876 0.44993 -0.24541 0.66881 -0.16055 -0.192 0.77019 -0.14898 0.13029 -0.17713 0.41051 -0.17535 0.45315 -0.20813 1.1535 -0.028449 -0.11565 0.8639 0.16563 -0.42576 0.48639 -0.81553 -0.46676 0.0024678 -0.080823 -0.34134 0.2558 0.28274 -0.93934 0.084133 0.41559 -0.34715 0.075209 -1.053 0.16022 0.57484 -0.73144 -0.5188 -0.0010427 -0.20773 0.19792 -0.2249 0.0146 -0.24591 -0.55164 -0.55517 -0.25533 0.35597 0.037868 0.29384 -0.32517 0.59217 -0.8257 0.12662 0.34547 0.40732 0.16164 -0.24598 -0.27376 0.69831 0.52995 0.61227 -0.52018 -0.21611 0.41228 0.33894 -0.20567 -0.77231 0.35031 0.49462 -0.037678 0.19305 -0.58204 -0.40802 -0.71015 -0.42189 -0.010852 0.25941 -0.58284 -0.5853 -0.33403 0.82914 -0.50926 0.33638 0.70237 -0.55605 -0.46317 -0.50367 0.95343 -0.31 1.0283 -0.15086 0.47539 -0.058367 0.17502 0.39958 0.30438 -0.89135 0.14009 0.53989 0.32184 -0.17468 0.54296 -0.18855 -0.41389 -0.085185 -0.048573 0.19943 -0.030215 0.073024 0.57384 -0.12603 0.12976 0.23277 -0.61188 -0.81838 -0.40354 -0.15092 0.13556 0.059412 0.063882 -0.18439 -0.034213 0.2401 0.23676 -0.11862 0.21139 0.13449 -0.6916 0.63003 0.47592 -0.80335 -0.36965 -0.39664 -0.08252 0.12224 -0.47266 0.44712 1.4268 -0.21617 0.2422 0.85212 -0.47456 0.18944 -0.46897 -0.46172 0.17428 0.22709 -0.49439 1.0814 0.59221 0.46875 0.2641 -0.37066 -0.11895 0.98609 -0.24899 0.31108 0.24488 2.4071 -0.1926 -0.28679 -0.68879 0.38207 -0.5294 0.6217 -0.37949 -0.16647 -0.33112 0.14067 -0.039168 -0.15921 0.020751 0.067745 -0.40599 0.11435 -0.82253 -0.067925 -0.60754 0.37455 -0.25916 -0.35349 -0.13939 -0.24969 -0.62065 0.22201 -0.068314 -0.78246 0.26541 -0.55596 0.39105 0.007787 -0.23908 0.91554 0.25126 -0.11295 0.59261 -0.036863 0.19107 -0.018507 -0.38583 -0.094539 0.011538 -0.21448 -0.0033476 -0.2413 0.5137 0.16778 -0.67994 0.36503 -0.013352 -0.060538 -0.015175 -0.82886 -0.55515 0.39338 -0.57883 0.24877 0.64317 -0.0498 -0.2249 0.10157 0.34393 0.18026 -0.16555 -0.43312 -0.90053 -0.31166 -0.035667 0.22476 0.5387 0.19424 0.53535 0.38113 0.32646 -1.3502 0.26764 0.38671 -0.50099 -0.080637 -0.048833 0.46068 -0.1358 0.35048 -0.14744 0.18264 -0.68311 -0.5534 0.17641 -0.51124 0.44536 -0.39929 0.15475 0.85655 -0.22964 0.13523 -0.39542 0.1836 0.24845
church -0.65236 -0.74691 -0.71397 -0.0059515 -0.25791 -0.21593 -0.35199 -0.11603 -0.056036 -1.2818 -0.16411 0.70748 0.52123 0.32779 0.17387 -0.5392 -0.18577 -0.47875 -0.24883 -0.61994 -0.023263 0.12549 0.045752 0.11284 -0.020099 0.23056 -0.41756 -0.25315 -0.69738 0.41158 0.88808 0.83852 -0.66068 0.70719 -0.26742 0.2089 -0.2784 -0.61088 -0.15425 -0.094716 -0.047709 0.26722 -0.43974 0.63775 0.65149 0.26827 0.43333 -0.22958 0.022457 -0.028404 -0.035517 0.51799 -0.48083 0.47857 -0.054612 0.25212 0.1837 0.61679 0.01383 -0.1495 0.92265 0.17462 0.46116 1.1371 0.094208 -1.1291 0.14716 -0.27944 -0.055114 -0.38174 -0.77342 -1.0166 -0.6523 0.026552 0.1046 -0.2424 -0.013207 0.28134 -0.43128 -0.39136 -0.47673 -0.072558 -0.46368 0.22186 0.020483 0.17291 0.26031 0.3155 0.009202 0.35491 0.044172 -0.7893 -0.19732 0.40709 -0.20552 -0.64046 0.33856 0.051958 -0.99753 0.097035 -0.19655 0.15618 4.0148e-05 0.1224 0.50559 -0.096441 0.18507 0.62725 -0.23697 -0.33572 -0.22439 -0.33054 -0.073366 0.23306 -0.38155 -0.46932 -0.15338 -0.4837 -0.47415 -0.39693 0.075248 -0.073612 0.53608 -0.081917 0.31823 0.032793 0.46049 0.39314 0.060569 0.034119 0.57197 -0.41926 0.10953 -0.065255 0.73385 0.041742 -0.1146 -0.16912 -0.42705 -0.50083 -0.096355 0.10553 -0.31399 0.21462 -0.17099 -0.20017 -0.080777 0.20192 -0.0080657 -0.12904 0.35956 0.064637 -0.15577 -0.0029562 -0.25755 0.97339 0.093954 0.58855 0.19377 0.11879 0.39292 0.47768 0.72508 -0.16697 -1.1801 0.25349 -0.47512 -0.10155 0.78275 -0.50566 0.11002 -0.056355 -0.1476 0.28967 0.44562 0.79979 0.12428 0.12406 -0.47624 0.20965 0.09463 0.70684 0.028187 -0.30648 0.64536 0.13357 -0.90099 -0.1719 -0.061909 0.40129 0.10413 -0.082748 0.021158 0.44024 0.019293 -0.18425 0.46966 -0.72139 -0.18506 0.41324 0.61568 -0.60873 0.0037965 -0.4135 0.15126 -0.48022 -0.055268 0.11078 -0.20642 0.51792 0.12861 0.73469 -0.72361 -0.65222 -0.382 0.27681 0.15677 -0.23744 0.030607 0.59363 0.26097 -0.11371 -0.2578 -0.3137 -0.19726 -0.36544 -0.17271 0.20527 0.2042 0.22191 -0.32825 0.33795 -0.04817 0.12778 0.03103 -0.37792 0.69735 0.18845 -1.2843 0.20494 -0.26503 -0.14255 0.45182 -0.60787 -0.18771 0.4386 0.48597 0.40124 0.1856 0.11583 -0.028147 0.31505 0.35986 0.053114 0.5838 0.071427 0.070998 -0.66435 0.25722 -0.18164 -0.32099 0.20142 0.15926 0.00074549 0.0073609 -0.68778 -0.29136 -0.11626 0.050362 0.17669 -0.85392 -0.30376 0.17468 0.25613 -0.1938 0.095019 -2.1267 -0.045457 0.71247 0.72286 0.45286 -0.056705 0.22523 -0.19072 -0.30487 0.73239 -0.49744 0.37551 0.18304 -0.0644 -0.38289 -0.15445 0.22412 0.65258 0.18425 0.014896 -0.15189 0.30928 0.10806 -0.12449
football 0.010569 1.4321 0.43626 0.32178 0.19188 -0.061888 -0.19103 0.45398 -0.17038 -0.42369 -0.4074 0.46453 0.32318 -0.01444 0.27276 0.15969 -0.14704 -0.46566 0.10306 -0.95177 0.2887 0.32979 -0.44688 0.80839 -0.14175 -0.052176 -0.55731 0.40684 -0.05207 -0.35442 0.43672 -0.24065 -0.031001 0.46315 -1.7289 0.34553 0.29099 0.51499 -0.074436 -0.44231 0.21949 -0.68234 -0.20027 -0.008558 0.52725 -0.28092 0.25786 0.53114 0.043228 0.071035 -0.76478 0.26675 -0.30521 -0.043119 -0.15533 0.5091 0.1734 0.40201 0.19567 -0.6101 -0.18047 0.012477 -0.47256 -0.41116 -0.60993 -0.57438 -0.19372 0.054452 0.2102 -0.6613 0.21204 0.25898 -0.64374 0.047419 -0.66838 0.068284 0.64416 0.33077 -0.31266 0.10931 0.2082 -0.22169 0.063088 -0.24223 -0.19644 -0.042293 0.030093 -0.38395 0.265 0.72299 -0.10878 0.51812 0.28387 0.25547 0.28078 0.4929 0.40588 -0.4223 0.20619 -0.47623 -0.092119 0.16987 0.026994 0.19794 0.1356 0.40051 0.70697 -0.29342 0.41029 0.8292 0.20493 -0.35692 0.00018477 -0.31075 0.28971 -0.298 0.13255 0.051104 0.12674 -0.68002 0.17606 0.018733 0.35581 0.25089 -0.11042 0.022946 -0.24898 0.42003 -0.11741 0.11636 -0.49507 0.31726 -0.39962 -0.31477 0.47088 -0.31815 0.47137 0.32267 -1.0838 -0.29166 0.19379 -0.25932 0.21829 0.080577 -0.080354 0.29132 0.18365 -0.53424 -0.25622 0.43854 0.20516 -0.36483 -0.32215 -0.050029 0.82426 -0.3127 -0.11052 -0.031793 0.29338 0.37402 0.18983 0.25515 0.04026 0.106 0.22716 -0.51498 -0.14125 0.53933 0.086271 -0.59075 0.18956 0.3107 -1.718 -0.11029 0.36761 0.53868 -0.22124 -0.0090913 -0.058676 0.42131 0.48118 -0.66177 0.15226 0.33767 0.57274 -0.74265 -0.60256 -0.12414 -0.32375 -0.3284 0.16187 0.39974 0.61949 -0.13148 -0.16213 -0.16241 0.71548 -0.02801 0.077083 0.39134 1.9324 0.47875 -0.27207 -0.31605 -0.22244 -0.72461 0.5475 0.10631 0.38385 0.01216 0.39628 0.58594 -0.95748 0.58086 -0.091178 0.068654 -0.085435 -0.13699 -0.23693 -0.61596 0.21357 -0.52458 0.084805 -0.71689 0.040534 -0.22451 0.072966 0.20073 0.17412 -0.12279 0.61513 -0.019274 0.63544 -0.47423 -0.11403 -0.14698 0.20141 0.20436 0.31713 0.50231 0.75804 -0.23799 0.39179 -0.14856 0.50199 0.29741 -0.45384 0.055388 -0.31045 -0.39399 0.58335 0.076517 -0.24904 0.060969 -0.0011772 -0.032619 0.36527 -0.10168 -0.16738 -0.26376 -0.41128 -0.3609 0.63374 0.05688 0.45206 -0.28659 -0.74985 -0.022332 0.19554 -0.024036 -0.032769 -0.2082 0.051651 -0.48501 0.84525 -0.37668 -1.5581 0.14508 0.47263 0.27157 -0.4278 -0.18931 0.044593 0.37309 0.38481 -0.27684 -0.55235 -0.33031 0.058135 -0.85419 -0.29501 0.37765 -0.18745 -0.034535 0.37245 -0.34584 0.072305 -0.32491 0.13853 -0.27496
radio -0.19867 -0.1851 0.22132 0.74438 -0.33748 -0.00021519 -0.35511 0.35482 0.051159 -1.78 0.26706 0.063777 0.46478 0.48666 1.6483 0.29776 0.11769 0.06109 0.37087 -0.32995 0.80061 0.12278 0.10111 0.66965 -0.37586 -0.44907 -0.18576 0.44363 -0.27511 0.26222 -0.91393 -0.86441 -0.5953 0.78667 -0.53579 -0.40418 -0.23105 0.10667 0.014171 0.24361 -0.19846 0.17628 0.24769 0.43188 0.082871 0.63573 -0.11075 0.10739 -0.43875 -0.16165 -0.33686 0.28414 -0.14858 -0.13205 -0.15784 0.0030506 -0.20702 0.080066 0.51159 -0.47976 -0.12728 -0.16729 0.057998 0.18961 0.034635 0.53081 1.0496 0.55141 0.24824 0.54495 0.29428 0.37093 -0.015752 0.26971 0.025217 0.36258 0.28156 0.14239 -0.12307 0.50223 -0.74836 -0.015704 -0.10224 0.062081 -0.50885 0.28664 -0.29948 -0.21559 0.011158 0.049567 0.33023 0.3961 -0.58373 -0.23225 -0.10846 -0.36974 -0.060746 -0.34459 0.43428 -0.57974 0.047928 0.50967 -0.15124 0.14331 0.29822 0.43509 -0.091915 -0.21935 -0.097618 0.65178 -0.2109 -0.0049338 0.28735 -0.039573 -0.085411 -0.53842 -0.86916 -0.35096 0.25537 -0.15708 0.63176 0.42039 0.27242 -0.9345 -0.51608 -0.45109 0.043477 0.64301 -0.63066 -0.32962 -0.010227 -0.43655 -0.11761 -0.50367 0.28811 -0.85252 0.42762 0.4717 0.18874 0.0011675 -0.59725 0.33083 0.38928 0.59977 -0.052541 0.098118 0.54671 -0.60168 0.42831 -0.25321 1.3543 0.15823 0.043324 0.49688 0.39144 0.17036 0.2575 0.28585 0.32741 -0.35292 0.30668 -0.44348 0.29265 -0.32631 -0.083519 0.35106 -0.46485 -0.61414 -0.35981 0.1333 -0.11612 0.18253 -0.5938 0.39154 0.20959 0.40941 -0.23343 0.23943 -0.31409 0.34043 -0.41554 0.2044 0.25944 0.020908 -0.41369 -0.017769 0.18643 0.33569 -0.4356 -0.075269 0.33378 0.25408 0.080332 0.13597 0.49616 0.078064 0.022527 0.12985 -0.094061 0.3192 0.7438 0.54756 0.21733 0.035447 0.10176 -0.086299 -0.19919 0.34745 0.25601 -0.30828 0.3085 -0.30668 -0.55224 0.008937 -8.0546e-05 0.43234 0.012156 -0.14827 0.37601 0.24202 0.50969 -0.27689 -0.036324 0.013732 0.5851 0.89566 0.3521 -0.71374 0.87551 0.15396 -0.0061314 -0.19628 -0.15265 -0.68193 0.43063 0.065877 0.30383 0.69019 -0.69029 -0.32848 0.33685 0.7216 -0.28408 -0.55612 0.53587 0.3153 -0.27663 -0.66263 0.26818 -0.25008 -0.16814 -0.029979 -0.40645 0.88945 0.28212 0.5791 0.46845 -0.22366 -0.14344 -0.50336 0.60237 0.085129 0.21169 0.50527 -0.22138 -0.39729 -0.044458 0.31688 0.37232 -0.093263 0.16898 0.22733 0.1002 -0.18247 0.60042 0.14764 -1.7176 0.46528 -0.004945 0.59958 -0.59408 -0.26515 -0.43466 -0.073467 0.076246 -0.40361 -0.36187 -0.13563 -0.15131 0.34299 -0.6463 -0.33647 -0.075072 -0.38664 -0.34915 0.23485 0.20944 0.43995 -0.036064 0.50584
stage -0.17515 0.35964 -0.16642 -0.61981 0.054736 0.23642 -0.1605 -0.4815 0.0053042 -0.83877 0.10496 -0.099042 -0.080671 0.082486 0.0969 0.15012 -0.50725 0.24482 0.36727 0.050586 -0.53854 -0.015656 -0.22602 -0.099999 -0.29681 -0.17773 0.21063 -0.27759 0.0060903 0.35929 -0.25104 -0.20743 0.022267 0.4447 -0.81343 0.10315 -0.049064 -0.06198 0.40234 -0.19426 -0.71229 -0.081183 -0.48694 -0.56654 0.033468 0.11338 0.13576 0.12099 0.32389 0.31077 -0.11142 0.36031 0.1416 0.1482 -0.083247 0.37788 -0.11208 -0.44964 0.33966 0.15486 0.13283 0.075035 0.22364 0.0079403 -0.60902 0.20349 0.5037 -0.011435 -0.022672 -0.29153 0.14121 0.17194 0.20866 -0.16175 -0.0078135 -0.0059398 -0.31072 -0.026991 0.16098 -0.074103 -0.26537 0.14014 -0.014438 0.33611 0.027702 0.30396 0.15567 0.24349 0.2855 0.24195 0.26323 -0.30164 0.1038 0.22564 0.13935 0.1531 -0.6815 -0.19496 0.041742 -0.8803 -0.17378 0.41258 -0.14282 -0.44877 -0.036069 0.037611 -0.25156 0.50032 0.35792 -0.08237 -0.0033518 0.26328 0.064285 0.50689 0.1002 -0.014669 0.0299 -0.45593 -0.35466 -0.12991 -0.13877 -0.20156 -0.19147 0.32298 0.034634 -0.12813 0.004524 0.14838 -0.26641 -0.094298 0.37889 -0.072926 0.31043 -0.45257 0.34104 -0.023228 -0.2734 0.016035 0.18491 0.62798 -0.22981 -0.69371 0.26577 -0.34699 -0.33526 -0.016273 -0.059872 0.060514 -0.34162 0.28742 0.12784 0.39139 -0.19144 0.089004 0.18755 0.10343 -0.41062 0.24366 -0.60202 0.39431 -0.34869 -0.53203 -0.44478 -0.29256 -0.15957 0.43625 -0.80945 -0.053807 0.092966 0.06865 0.28972 0.30999 0.21943 -0.66867 -0.23246 -0.2605 0.062649 0.28832 0.019336 0.44705 -0.3828 0.2624 0.3562 0.35599 -0.073767 0.24587 -0.52941 -0.023811 -0.037682 -0.32497 0.17029 0.18928 -0.065361 0.14727 0.65897 -0.037298 -0.024909 0.12836 -0.25785 -0.19448 1.7928 0.051493 0.020723 -0.28978 0.30565 0.036839 -0.011271 -0.043377 -0.11045 -0.013435 0.0059623 -0.27442 -0.63851 -0.2106 0.20719 0.21487 0.7572 -0.5347 -0.15564 -0.11348 -0.051758 -0.19752 -0.61656 -0.22038 -0.052695 -0.36815 0.21971 -0.38962 -0.57434 0.15167 0.10708 -0.15244 -0.21557 -0.1512 0.49439 0.76455 -0.28005 0.13861 0.43069 0.25307 0.31804 -0.011616 0.45198 0.52291 -0.70197 0.014812 -0.21784 -0.23104 -0.26605 0.081206 -0.23032 -0.34299 -0.35889 0.030264 0.33387 0.11101 0.62435 -0.36938 0.20334 0.70956 0.50581 -0.62673 0.45613 0.29162 0.2108 0.057594 -0.43784 0.023626 0.91571 0.078852 0.75057 0.50985 -0.45552 0.13587 0.69743 -0.19388 -1.6481 -0.68481 0.39575 -0.08977 -0.077595 -0.44153 -0.21897 -0.22659 -0.05522 0.57662 -0.061511 0.56307 -0.39695 0.32199 0.16499 -0.21192 -0.34612 -0.040811 0.16855 0.92562 -0.35373 -0.20021 -0.023827 0.049571
prison -0.33899 -0.49934 -0.63659 -0.41035 0.25208 -0.56309 0.42722 -0.37516 0.27957 -1.2134 -0.32199 -0.15191 0.094442 0.41215 -0.0078141 -0.68443 0.18118 0.20513 -0.096004 -0.22546 0.50565 -0.63952 0.35344 -0.19611 -0.0064321 -0.56958 0.31752 -0.059035 -0.22196 0.29402 -0.49469 0.010976 -0.67467 0.32239 0.70164 -0.16231 -0.20236 -0.353 -0.43886 -0.50968 0.61796 -0.32246 -0.66921 0.29294 -0.36085 0.011931 -0.87704 0.56865 0.1636 -0.40328 -0.74973 -0.35003 -0.19062 0.50235 0.59814 -0.68314 -0.65989 -0.22882 -0.18423 -0.64406 0.10765 -0.29513 0.08033 -0.59322 -0.47546 -0.82934 -0.25448 -0.34075 -0.04433 0.31934 0.28801 -0.12386 0.083397 -0.4673 -0.13473 0.13863 -0.35496 -0.2247 0.3688 -0.1898 0.55397 -0.36347 0.10522 0.17542 -0.2547 -0.25221 0.27128 0.27951 0.65516 0.17251 -0.5943 0.016838 -0.49266 0.14152 -0.34953 0.2748 0.69963 0.078687 0.36944 -0.62204 -0.11257 -0.31319 0.20572 0.85774 0.27394 -0.051269 0.16846 0.34611 -0.24531 0.11347 -0.7343 0.036552 -0.27314 -0.91479 0.53105 0.51017 -0.080911 0.1831 -0.42241 0.06761 -0.42163 0.14626 0.17495 -0.074221 0.21339 -0.050495 0.59467 -0.39916 0.44151 0.7566 0.38862 -0.34966 -0.35617 -0.10731 -0.096007 -0.38505 0.075718 -0.003041 -0.42852 -0.16504 -0.17585 -0.21472 -0.32075 0.74511 -0.35163 -0.43668 0.25694 -0.4659 0.37692 -0.1776 0.38416 -0.19455 0.2088 -0.060754 -0.18236 -0.40701 -0.3609 0.34798 -0.51401 0.13397 -0.30327 0.14875 -0.023297 -0.12084 -0.513 0.17961 -0.31697 -0.35447 -0.2492 0.00703 0.75173 -0.066861 -0.74557 -0.47393 -0.21614 0.51886 -0.045012 0.040117 0.39084 0.50172 0.12095 0.46141 0.12723 -0.025088 -0.23114 -0.07886 -0.11423 0.23928 0.43614 -0.17088 -0.3551 0.11498 -0.25519 -0.30239 -0.19051 -0.34752 -0.32755 -0.027759 -0.27767 -0.13521 0.62425 0.3612 0.0010471 0.41307 -0.3429 0.16904 0.086665 -0.29951 -0.17896 -0.10795 0.55509 -0.34777 -0.85274 0.12691 0.97307 0.80585 -0.40024 0.35553 -0.14739 0.24699 0.37228 0.10765 0.54477 0.69502 -0.042062 -0.17658 0.012557 -0.64602 0.30517 -0.70107 0.63441 -0.52862 -0.33474 -0.12922 0.26183 0.12797 -0.50908 0.46056 0.24236 0.29635 -0.13479 -0.15854 0.45875 -0.53287 0.072989 -0.049252 0.9004 0.4808 -0.28806 -0.080884 -0.65497 0.65806 0.22312 0.30431 1.3828 0.20002 -0.060772 -0.091341 -0.23392 -0.31137 -0.44554 0.019158 0.14998 -0.38157 -0.097006 -0.49308 0.39311 -0.42821 -0.66286 -0.1046 -0.026504 -0.51987 0.52164 0.58953 0.28344 0.12828 -2.1996 0.22702 -0.1374 0.17078 -0.1545 -0.033449 -0.091207 -0.18513 0.16759 0.78487 -0.47293 0.47995 -0.27967 -0.10533 0.39656 0.068948 -0.20412 -0.59203 0.26341 0.20724 -0.15963 0.063215 -0.68789 0.38131
grand -0.49588 -0.018563 -0.086023 -0.65001 0.5787 -0.066472 -0.28469 0.24609 -0.19238 -0.51966 0.30784 0.082928 -0.24981 0.88269 -0.50714 -0.08529 -0.73535 0.217 0.76269 -0.16806 -0.24621 0.38333 -0.11532 -0.068301 0.016819 -0.64542 -0.018069 0.14952 -0.090844 0.02736 0.33595 -0.19538 0.044358 0.21973 -0.68598 0.17696 0.073705 1.5366e-05 -0.059964 0.3571 -0.50056 0.85804 -0.045441 0.75801 -0.0023237 0.067995 0.06741 0.33286 -0.25024 0.75248 0.31722 -0.072971 0.72537 0.1021 -0.0053382 0.68808 0.25009 -0.35834 0.47755 0.42935 -0.25104 -0.54488 0.35386 0.093419 -0.23903 -0.43976 0.0024471 0.16498 -0.22524 0.16197 0.30982 -0.19303 -0.021885 -0.011902 -0.5002 0.053198 0.013719 -0.28074 -0.28024 0.20287 0.20946 0.62398 0.34827 0.22641 -0.12056 -0.44691 -0.22695 0.82869 0.038268 0.99002 0.028129 -0.43821 -0.010188 0.19339 0.019041 0.10015 0.45094 0.060473 0.11856 -0.35432 -0.16591 0.61964 0.31104 -0.0040203 0.27963 -0.59647 0.030101 -0.28445 -0.14811 -0.76845 0.15404 0.086207 0.21212 0.15836 -0.25842 0.31303 0.26765 0.81281 -0.13839 0.44596 0.48539 0.39818 0.32463 -0.74146 0.28144 -0.94378 -0.34935 0.077021 0.32599 0.239 0.21334 0.39056 0.18071 0.12731 0.048379 -0.050948 0.73953 -0.32315 -0.28343 -0.19016 0.13321 0.366 0.26461 0.79994 0.59082 -0.45845 -0.11483 0.10855 -0.1195 0.62802 1.7118 0.53664 -0.37433 0.096166 0.28903 -0.066604 -0.35707 -0.11259 -1.2843 -0.23645 0.21443 0.079613 -0.28053 0.22663 -0.44151 -0.24367 -0.71634 -0.35455 0.82264 0.097949 0.573 -0.39663 -0.23984 -0.67605 0.17984 0.082598 0.35678 0.4049 -0.1015 0.18785 0.73737 0.71723 -0.074711 0.36137 0.11832 -0.26422 -0.34262 0.18632 -0.18735 0.22272 0.1098 -0.44492 0.28873 0.4009 -0.26404 -0.18189 0.06166 0.46743 -0.029518 -0.28941 2.3257 -0.065168 -0.85697 -0.29592 -0.50799 0.32172 -0.57311 -0.06665 0.51096 -0.3479 -0.20506 0.77056 0.35426 0.42953 0.54269 -0.11653 -0.10156 -0.42052 0.25372 -0.29313 0.60663 -0.72553 0.24427 -0.47098 -0.56066 -0.22427 -0.23969 0.071268 -0.47946 0.048139 -0.22531 -0.3081 0.13907 -0.20113 0.50918 0.38907 0.049676 0.026468 0.37048 0.026323 -1.3377 -0.28923 0.3345 0.58308 -0.10569 -0.17525 -0.12066 -0.29112 0.021982 0.31438 0.31637 -0.17651 -0.085439 -0.63994 0.040822 -0.58049 -0.22891 0.18232 0.52235 -0.060109 0.1326 -0.05959 -0.20929 -0.47956 -0.12727 -0.77649 0.10433 -0.69599 0.80071 -0.56614 0.13759 -0.26875 0.85182 0.15675 0.67346 -0.36141 -1.4131 0.29061 0.8275 -0.37674 0.25954 0.37796 0.22699 -0.018518 -0.097047 0.13614 0.015752 -0.00046002 -0.022915 -0.15204 -0.18283 -0.077062 -0.44002 0.23574 0.10877 -0.49659 0.32267 0.12819 0.70531 0.4438
rule 0.38648 -0.58113 -0.11446 -0.15636 0.23209 -0.26157 0.064885 0.56868 0.34222 -1.7479 -0.53123 0.50784 -0.17356 -0.22125 0.092213 0.36541 0.51125 0.18011 0.1413 0.11789 0.41675 0.042644 0.17907 -0.14989 -0.057262 -0.23698 -0.3611 -0.091085 -0.042803 -0.17246 0.16569 0.15026 -0.046322 0.073915 -0.26874 -0.22923 0.32031 0.20738 0.0057481 0.21709 0.74503 0.12111 -0.20653 0.15188 -0.046068 -0.43046 -0.024696 0.09091 -0.4192 0.2398 0.059285 0.054333 0.37909 -0.14258 1.2503 -0.22857 0.28085 -0.45642 0.052905 0.17152 0.50314 0.083437 -0.7845 -0.064306 -0.3282 -0.052523 -0.11106 -0.073464 0.02495 0.073369 0.68042 0.21629 -0.41178 -0.1002 0.33881 0.41342 -0.13675 -0.15496 -0.27767 0.14469 0.044271 0.20999 -0.085257 0.62213 0.17801 0.2319 0.13521 0.43316 0.12847 0.64168 -0.85834 -0.36725 -0.37552 -0.093914 0.028873 -0.12676 0.024634 -0.039921 0.12617 0.45556 0.45336 0.068363 0.32042 -0.066227 -0.50452 0.24298 -0.24396 0.14318 0.048162 0.11174 0.55787 -0.30041 -0.36255 0.058667 0.11472 -0.22215 -0.13226 -0.28246 -0.52263 -0.38991 0.14407 0.40913 0.11447 -0.41766 0.32961 0.10659 0.1508 0.5829 0.25484 0.069131 0.13926 0.10804 -0.28947 -0.27995 0.6719 0.30018 0.54345 -0.061599 0.022059 0.16887 0.13651 0.1397 -0.17701 -0.23659 -0.64009 -0.36609 -0.25907 0.3808 0.11954 0.095751 -0.073627 -0.24004 0.16387 0.15235 0.79363 0.43167 0.1254 0.29856 -0.11855 -0.31464 0.60767 0.34809 -0.045899 0.11652 -0.069433 0.21851 -0.012081 0.22114 0.14581 -0.12132 0.2013 -0.18058 -0.37718 0.15178 -0.26839 0.055816 0.13131 0.20289 -0.062449 1.0382 -0.23416 0.12922 0.063147 -0.22838 0.056186 0.029115 -0.62304 -0.19782 0.092365 0.052125 0.031787 0.051363 0.23254 -0.011058 0.37059 -0.47549 -0.23027 0.15654 0.24209 -0.14369 0.74582 0.29482 0.062358 0.022229 -0.10237 -0.31855 0.28532 0.1228 0.17605 0.47227 -0.27684 -0.16696 0.16801 0.43333 -0.059528 0.054787 0.084051 0.14361 -0.40629 0.036046 7.568e-05 -0.10487 0.54668 0.33224 -0.25266 -0.24244 0.53458 0.33962 -0.054007 0.083199 -0.062491 -0.098228 0.32421 0.18509 -0.62189 -0.11859 0.065412 -0.28625 0.52465 -0.14709 -0.25011 -0.071271 0.52569 0.35558 -0.62109 -0.011849 0.019068 -0.081744 -0.064716 -0.22908 0.4014 0.25317 0.20963 -0.69146 0.13709 0.096067 -0.12042 -0.154 0.161 -0.05795 -0.26165 -0.18127 -0.3049 -0.11218 -0.23279 0.14241 -0.16899 0.23809 0.23404 -0.22362 0.024116 -0.2081 0.20466 -0.06617 -0.068933 0.15055 -2.139 -0.13455 0.20836 -0.15845 0.6456 -0.5947 -0.33781 -0.11398 -0.23483 -0.092165 -0.46403 0.14528 -0.69933 -0.018844 0.024379 -0.045487 0.29877 0.37938 -0.15038 0.46574 -0.29629 -0.76732 0.11441 0.31937
plane 0.41591 -0.1911 -0.31103 -0.56591 -0.4537 -0.0089579 0.23141 0.38376 -0.16488 -1.8812 -0.32575 0.10724 0.12407 -0.81608 -0.0073926 0.6274 0.59046 0.19403 -0.068457 -0.36868 -0.25995 0.6767 0.19576 -0.14808 -0.13684 0.25763 0.097518 0.16048 -0.74297 -0.11733 0.10728 0.35729 -0.4293 -0.21057 -0.010561 0.064085 -0.31011 -0.32461 -0.13934 0.7578 -0.37415 0.046867 -0.10654 0.032366 -0.17529 0.27838 0.58102 -0.023115 0.1122 0.1432 0.38032 -0.65606 -0.041937 0.27215 -1.0508 -0.19549 -0.086086 -0.11102 0.19528 -0.34628 -0.76465 0.34532 0.45773 0.056509 -0.065889 0.14945 0.10914 0.049503 0.21038 0.22764 0.28327 0.28331 -0.17619 0.003201 0.029375 -0.23147 -0.1146 0.31803 0.052193 0.67399 -0.81531 0.13337 0.29947 0.50508 0.071393 -0.49512 0.62928 -0.048551 -0.28296 0.0062967 0.55492 0.60764 -0.3791 -0.46903 0.2577 -0.11408 -0.74677 0.16673 -0.24101 0.11712 0.23526 0.6016 0.35141 0.61099 0.12701 -0.14481 0.14568 -0.30664 -0.26469 0.10537 -0.2939 0.0014006 0.11701 -0.32391 -0.030402 -0.0097617 0.12867 0.34858 -0.19823 -0.43871 0.24734 -0.54164 0.10181 -0.218 -0.57802 0.076841 0.45956 -0.1203 0.47693 -0.42629 -0.13993 0.73066 0.433 0.50134 0.097097 0.40863 -0.29419 0.073398 -1.0531 -0.28925 -0.10551 -0.0047604 -0.42265 0.03877 -0.76641 -0.034892 0.69622 -0.27637 0.058083 0.086007 1.0558 -0.01528 0.1949 -0.029317 1.1159 -0.12447 0.74836 -0.063075 0.80314 -0.06529 0.18319 -0.7051 -0.039534 0.054794 0.50413 -0.2978 0.28091 0.10732 -0.58385 0.15263 -0.16071 -0.75432 0.73552 0.043678 -0.55312 0.21404 0.57101 -0.2323 0.44611 -0.45912 0.34941 0.51345 0.1505 0.10545 -0.69867 -0.20884 -0.32895 0.54089 -0.0063633 0.19398 0.13796 0.10199 0.21664 -0.0095107 0.038365 -0.22959 -0.068395 0.45691 -0.20825 0.059025 0.84525 -0.36442 0.026472 -0.19388 0.62093 -0.30132 -0.37768 0.18069 -0.22785 0.080357 -0.45638 -0.26669 -0.33228 0.080721 0.032904 -0.50977 -0.19736 -0.52459 -0.031065 0.2743 1.0231 0.49545 0.68313 -0.059222 -0.4032 0.10848 -0.12971 -0.023928 0.10162 -0.12927 0.51605 -0.093862 -0.0012165 -0.068414 0.51746 -0.011248 -0.30336 0.47581 -0.18265 0.01527 0.5594 -0.00010041 -0.20936 -0.12543 0.97885 -0.42169 0.31223 -0.039425 0.42472 0.77867 -0.65559 0.37597 -0.1446 -0.052174 0.2684 0.51925 -0.41539 -0.15288 0.039574 -0.30482 0.65949 -0.18776 0.20096 0.065233 0.50082 -0.14303 0.15824 0.13018 -0.11997 0.66261 0.61276 -0.11105 0.36192 0.070023 0.28643 0.030453 -1.7409 0.17571 0.26929 -0.24166 -0.3985 0.38805 0.36703 -0.56533 0.062239 -0.15724 0.063662 0.43756 -0.17142 0.39611 0.57213 0.026131 0.055154 -0.42169 -0.14054 0.35023 -0.69649 -0.24137 -0.090652 0.11788
valley -0.39663 -0.079449 0.24487 -0.56649 0.042122 -0.056981 0.0098218 0.027734 0.38387 -0.54677 -0.53922 -0.38149 -0.024183 0.59371 0.42102 0.36502 -0.28734 -0.0094055 0.59267 0.88589 0.078834 -0.017473 0.21979 -0.055142 -0.21259 -0.57108 -0.31389 -0.48085 -0.026112 -0.43856 0.9379 0.29735 0.0086894 0.46334 -0.11713 -0.22289 -0.15635 -0.095503 0.019472 -1.0775 -0.091252 -0.12641 0.24598 0.95735 0.43601 -0.22985 0.15021 0.58831 0.9437 -0.62469 0.47286 0.0009096 0.070698 0.1218 -0.020819 -0.27636 -0.2049 -0.27113 0.71175 0.42398 0.034875 -0.72525 0.21466 -0.34552 0.010041 -0.3036 -0.63232 -0.29065 -0.44017 -0.34211 -0.18646 -0.14771 0.15614 -0.19094 -0.41021 -0.35559 0.3122 -0.061462 -0.27819 0.101 -0.45091 -0.25801 -0.43437 -0.53132 0.56377 0.30696 -0.31244 0.33618 0.091061 0.36693 0.277 0.45015 0.87652 1.0517 -0.4655 0.21056 0.41153 -0.41589 0.16341 0.081559 -0.10054 0.37367 -0.33357 0.11024 -0.17102 -0.0012255 0.3961 0.03083 0.027842 -0.025202 -0.49789 -0.68371 0.38669 -0.25771 0.09054 0.28338 -0.0020595 -0.059303 -0.14248 0.21222 0.010671 -0.1759 0.10178 -0.047828 -0.046945 0.30827 -0.057797 0.41465 -0.42067 -0.23335 -0.202 0.20964 0.080056 0.25161 0.24803 -0.024005 -0.061573 0.080405 -0.28748 -0.80767 0.30571 0.41682 -0.22557 -0.095484 -0.99856 -0.17239 0.70073 -0.12397 -0.81104 0.18864 0.54161 0.088937 0.27633 -0.27097 1.6576 -0.22289 0.22197 -0.32256 0.049413 0.23214 -0.30182 -0.15502 0.063365 -0.18522 0.39633 -0.25067 0.33826 -0.50938 -0.90917 0.27718 -0.39215 0.28911 0.040161 0.062406 0.068037 0.67166 -0.3897 -0.56162 0.26935 0.24183 0.0076966 0.26931 -0.1564 -0.20358 0.28183 -0.18002 -0.091342 -0.46248 0.052131 -0.33719 -0.018369 0.96242 0.20252 0.24229 -0.12381 0.15097 0.21052 -0.91214 0.13025 1.1542 1.1523 0.092964 0.044671 0.12492 -0.60182 -0.62775 -0.85932 0.62722 0.32171 0.25917 0.31604 0.13522 0.18513 -0.5495 0.33466 -0.42598 -0.40344 0.041063 0.23461 0.2184 0.32979 -0.38925 -0.14054 -0.67231 0.35866 0.29133 0.29664 0.02423 0.16657 0.43701 -0.41547 0.3009 -0.23879 -0.33377 0.53569 0.084484 0.056455 -0.44485 -0.39847 -0.23958 -0.5155 0.66639 0.33922 -0.082277 -0.82033 0.002338 -0.11941 0.36912 -0.28876 -0.19495 0.060596 0.34809 0.1985 0.043891 0.016207 -0.33474 0.23545 -0.13347 0.34566 0.16532 -0.25338 -0.1137 0.12692 -0.3622 -0.61441 0.20823 0.241 0.23324 0.32561 0.61272 -0.24041 -0.26093 0.2549 -0.12222 0.29882 -0.18699 -1.0757 -0.032892 0.30029 0.37682 -0.075267 -0.30035 -0.43593 0.2473 -0.8755 0.30399 0.70292 -0.26784 0.056108 -0.42531 -0.031868 -0.66673 -0.35142 0.71108 0.11435 0.31713 0.11572 -0.03302 0.056235 0.68653
jersey -0.14861 -0.57285 -0.10121 0.0052362 0.020242 -0.015739 0.29632 -1.0237 0.04332 0.25283 -0.15104 -0.34716 -0.12809 0.27347 0.27138 0.63213 -0.43726 -0.21941 -0.055815 -0.071614 -0.3766 -0.11223 -0.24502 -0.12805 -0.71493 -0.711 -0.0023649 0.074637 -0.36424 -0.46855 0.51431 0.14116 -0.066182 0.24427 -1.1048 0.6919 0.35617 -0.075708 0.33286 -0.15586 -0.60293 0.08735 -0.36169 0.33534 0.26948 -0.11476 0.19241 0.04082 0.52586 0.06643 -0.67547 0.21552 0.021383 -0.37082 -0.095034 -0.0077746 -0.32475 -0.1545 -0.026374 -0.60163 0.24551 0.20771 -0.077182 -0.26036 0.36946 -0.56656 -0.43953 -0.56019 -0.077517 -0.0057649 0.16254 0.46059 0.014992 -0.2428 -0.69985 0.227 -0.4181 0.27115 -0.33484 0.032161 -0.2021 0.44283 0.089772 -0.19131 -0.31957 0.31663 0.76192 -0.29999 -0.21548 0.065997 0.19349 -0.054674 0.62677 -0.093976 -1.0494 -0.40703 -0.71484 0.12189 -0.34291 -0.36916 0.55253 0.10099 0.27871 -0.15082 -0.40581 -0.2119 0.35211 0.38071 0.49743 0.28324 -0.13507 -0.47328 0.0098882 0.063332 0.035304 0.42847 0.3264 0.39218 0.14143 -0.058425 0.69727 0.070267 0.13403 -0.18779 -0.24493 -0.34668 0.33767 -0.51352 0.12834 -0.02132 0.52207 -0.25552 0.11609 -0.6367 -0.28271 -0.26346 -0.21347 -0.09306 0.29779 0.1475 -0.38273 -0.26162 0.27742 0.23595 -0.050728 0.58882 -0.36892 -0.41596 0.16125 0.16129 0.80434 -0.318 0.086505 -0.42673 -0.19983 -0.28335 -0.40962 -0.2073 -0.1322 0.16619 0.077631 -0.3339 -0.40964 -0.12322 0.60436 -0.068177 0.099283 -0.51345 -0.58193 0.33042 0.29601 -0.32176 -0.87168 1.0333 0.14522 -0.54462 0.86887 -0.17755 0.041721 0.32924 -0.23356 0.56801 0.57259 0.27665 0.22875 -0.16753 -0.31655 -0.47149 -0.06838 -0.14987 0.63624 0.077384 0.26376 -0.27424 0.69464 -0.22435 -0.41043 -0.59156 -0.23369 -0.10489 0.98589 0.28614 -0.02134 -0.43041 -0.10054 -0.31414 0.35711 0.64373 -0.22767 0.31612 -0.38389 -0.20816 -0.10156 -0.011768 0.28905 -0.29085 0.20977 -0.11192 0.16754 -1.013 0.45422 -0.10111 0.33842 -0.20642 0.72542 -0.47583 0.056241 -0.60693 -0.12107 0.0060185 -0.20098 0.41412 -0.32139 0.2648 0.086523 -0.64193 -0.021222 0.16675 0.029631 0.32428 -0.38019 -0.22047 1.0089 -0.21902 -0.42375 0.34201 0.46088 -0.33453 -0.043289 -0.71278 -0.21196 0.12377 -0.11255 0.52508 0.57633 -0.54952 0.24176 0.21748 -0.26048 0.049758 -0.20518 0.1854 0.25303 0.11387 0.066201 -0.35416 0.66662 0.45076 -0.39298 -0.36684 0.085807 -0.14607 -0.4434 -0.096454 0.17837 0.2482 -1.7376 0.050993 0.12917 0.68907 -0.07436 0.22881 -0.22613 0.018743 -0.4622 0.59284 -0.48494 0.97698 0.35095 -0.43402 0.50317 -0.30407 -0.75238 0.5691 -0.19184 0.20398 0.49545 -0.23498 0.47652 0.17148
soccer 0.3012 0.90562 0.38724 8.1074e-05 0.23461 0.42047 -0.5313 0.34871 -0.48946 -0.29656 -0.41399 0.60598 0.17305 -0.083987 -0.26004 0.28961 -0.073884 -0.16104 0.3095 -0.47705 0.015885 0.10417 -0.24671 0.15809 -0.36263 -0.25051 -0.34686 0.69832 0.36856 0.31139 -0.1492 -0.0034171 0.17443 0.57211 -1.384 0.47843 0.62562 0.23986 0.068164 0.21453 0.57381 -0.33462 0.04763 -0.073989 0.56913 -0.27597 0.46513 0.59977 0.14776 0.05599 -0.68193 -0.067452 -0.43748 0.26398 -0.44011 0.88987 0.11142 -0.041244 0.66779 0.031923 0.072162 0.27501 -0.28172 -0.60819 -0.63231 0.058174 -0.24906 0.35187 -0.043667 -0.6147 0.28271 0.56577 -0.5892 -0.059795 0.0037522 -0.070183 0.26434 0.018037 -0.050682 0.28251 0.2198 -0.24212 -0.327 -0.074204 -0.31323 -0.24674 -0.047631 -0.35754 0.01448 0.38398 -0.10848 0.37641 0.54844 0.099259 0.046531 0.34244 0.29691 -0.10308 -0.40226 -0.59415 -0.073693 -0.1691 0.035922 0.080284 0.13413 0.64807 0.63894 -0.30584 0.12503 0.50774 0.077516 -0.34107 0.18698 -0.33254 0.30372 -0.20961 0.37129 -0.078835 -0.0015887 -0.4327 0.30427 0.327 0.51818 0.36061 -0.40339 0.68286 -0.26175 0.052307 -0.22652 0.12697 -0.19599 0.21819 -0.25647 -0.028492 0.49656 -0.40073 0.18795 -0.024369 -0.61003 0.12143 -0.050415 -0.34234 0.26894 0.14437 0.31354 -0.18746 0.54022 -0.17774 0.32781 0.19811 -0.023217 0.29015 -0.14995 0.16477 0.52349 -0.36053 -0.52796 0.33822 -0.195 -0.032925 0.21991 0.2383 -0.12903 0.56775 0.45707 -0.45656 0.017006 0.50316 -0.38183 -0.71067 0.031603 0.57002 -1.7523 0.060872 0.57331 -0.02358 -0.21046 0.054342 -0.14686 0.9228 0.19215 -0.46572 0.088291 0.26676 0.52311 -0.21174 -0.48937 -0.23054 -0.17208 -0.67797 0.35875 -0.1089 0.15403 0.078649 -0.10363 0.12109 0.98429 -0.14627 0.20829 0.66617 1.4763 0.45127 -0.2455 -0.29306 -0.23096 -0.72397 0.60206 0.1455 -0.052532 0.0066058 -0.027523 0.28436 -0.69518 0.55087 -0.44305 0.23709 -0.0048172 -0.62142 -0.53519 -0.30608 0.60127 -0.53573 0.3742 -0.68443 -0.21864 -0.26983 -0.026606 0.28104 -0.47978 0.043863 0.40873 0.75535 0.31305 -0.24361 0.093466 0.13074 -0.0034679 0.91862 0.54943 0.1034 0.86868 -0.31283 -0.023086 -0.14467 0.70297 -0.097838 -0.61079 0.3277 -0.034783 0.11335 0.65263 0.086401 -0.4006 0.31255 0.016083 -0.44609 0.27763 -0.695 -0.0019861 -0.3794 -0.22508 -0.11913 0.28695 -0.15858 0.75114 -0.14156 -0.46086 0.32226 -0.27563 -0.48544 -0.23777 -0.24461 0.27001 -0.55302 1.0202 -0.12776 -1.7027 0.26622 0.35627 0.35176 -0.13066 0.32062 0.19356 0.33338 0.055132 -0.024431 -0.12826 -0.27604 -0.28359 -0.59849 -0.27179 0.34083 -0.78741 0.78987 0.29155 -0.13118 0.2293 0.012954 0.022709 -0.2301
safe 0.2646 -0.27114 0.30619 -0.16502 -0.053755 0.41263 0.6304 0.2598 0.2593 -2.2378 0.36098 -0.095421 -0.011289 0.31364 -0.59838 -0.12289 -0.11315 0.046152 0.033427 -0.059405 -0.34008 0.15712 0.43881 -0.38746 -0.21958 0.0060588 -0.28286 0.14265 -0.0043153 0.1856 -0.33442 0.068272 0.21817 -0.49015 -0.23177 0.8567 -0.21435 0.24675 -0.053536 -0.28265 -0.099123 0.00089437 -0.087912 0.22346 -0.095 0.34934 0.21605 0.041123 0.25202 0.59854 -0.37585 -0.56182 0.028296 -0.013767 0.037255 0.12866 0.13712 0.087889 -0.23202 0.45548 -0.56174 0.25565 0.070267 0.19852 -0.013129 0.22734 0.27846 -0.63567 -0.14125 0.5859 -0.15483 -0.62313 -0.0038255 -0.049787 0.27259 0.048019 0.40227 0.70198 0.25329 -0.59213 -0.08226 -0.027754 -0.062245 0.53311 0.043623 -0.41008 -0.32275 0.29858 -0.78437 -0.52672 -0.21429 0.39102 0.0017508 -0.048332 0.18921 0.53912 -0.081024 0.31876 0.32908 0.51051 0.38137 -0.28016 0.16338 0.048857 0.076938 0.18029 -0.11962 0.29597 0.10177 0.10419 -0.27494 -0.21852 0.24735 -0.22461 0.0032622 0.27143 0.78865 -0.12025 -0.072126 -0.17947 -0.59203 -0.028789 0.24267 0.59261 -0.12151 0.23645 0.31279 0.055468 -0.14258 0.1867 0.46238 0.026934 0.015595 -0.068987 -0.23867 0.031299 -0.042983 -0.33377 0.20184 -0.35269 -0.10372 -0.21182 0.48619 -0.13719 -0.28967 -0.52297 0.45801 -0.21439 -0.63679 -0.065115 -0.27567 -0.12161 0.095588 -0.0095149 0.27617 -0.22912 -0.3391 0.10235 0.13829 -0.18996 0.095208 -0.27897 0.09972 -0.093658 -0.29376 -0.095741 0.54989 -0.77692 0.035732 0.16008 -0.14634 0.013979 -0.10419 0.92959 0.028642 0.318 0.28234 -0.13771 -0.22727 0.12954 0.24257 -0.34169 0.6561 0.094947 0.12201 0.39861 0.56213 0.039567 0.35939 0.092652 0.42174 0.44102 -0.067212 -0.080394 0.012621 -0.54425 -0.2583 0.13314 0.092343 0.36097 0.48403 0.50809 0.19645 0.02292 0.16358 -0.04314 0.084668 -1.0243 0.22317 0.66419 -0.60891 -0.3085 -0.56999 0.22345 -0.028072 -0.30214 -0.40827 -0.065414 -0.039836 -0.067563 0.56326 -0.15586 -0.10236 0.037278 0.099153 0.12166 0.12566 0.0078548 0.18939 -0.48187 0.018482 0.3409 0.12191 0.18356 -0.093361 -0.37717 -0.58226 0.60902 -0.057466 0.34459 0.25345 -0.25149 0.45449 0.36756 -0.075439 0.31104 0.12298 -0.015162 -0.022037 0.13453 0.029361 -0.42856 -0.55332 0.24359 -0.14269 0.36125 0.19381 -0.30896 0.19278 0.48208 -0.17952 -0.80417 -0.16893 0.12941 -0.048692 0.46858 0.2503 -0.41279 0.27984 0.39457 -0.37048 -0.46345 -0.1669 -0.14742 0.045535 0.073752 -2.3189 0.29643 -0.1167 0.27106 -0.12976 0.20409 -0.54756 0.57891 -0.32693 -0.26537 0.46415 0.14957 -0.21962 -0.036566 0.12618 -0.15391 -0.043997 0.17062 0.18409 0.11865 -0.08657 -0.1366 -0.4007 0.39974
missile -0.20887 0.41045 -0.0089995 -0.52725 -0.045935 0.34317 -0.017264 0.24039 0.10945 -2.4719 0.94241 -0.13688 -0.057255 -0.24632 0.61293 1.3626 -0.10285 0.57634 -0.21189 0.35508 -0.15575 -0.48621 0.1896 0.14675 -0.11249 -0.13391 -0.076165 0.50494 -0.17234 -0.13351 0.82689 -0.15381 -0.031899 0.11508 0.88891 -0.11258 -0.63632 -0.093982 -0.19485 0.99435 0.10216 0.36233 0.13716 0.69709 -0.57893 0.21807 -0.0554 -0.73786 -0.13547 -0.30196 0.52403 -0.54639 -0.44362 0.12778 -0.46313 0.13414 -0.26808 -0.45235 0.20783 0.4679 -0.57878 0.27108 0.33184 -0.72966 0.12244 0.93509 -0.078949 0.42087 0.46514 0.63193 0.096834 0.059174 -0.039004 0.11325 0.0013725 0.55534 -0.17852 0.71069 -0.18748 0.51118 -0.055528 0.37142 -0.041834 -0.10398 -0.39667 -0.10422 -0.43957 0.027207 -0.15321 -0.85357 0.40073 0.17875 -0.33784 0.011762 -0.13984 0.18729 -0.9441 0.61555 0.010104 -0.24043 -1.1395 0.02508 -0.069117 0.2945 -0.039797 -0.511 0.14469 0.2065 0.33327 -0.11988 0.47959 0.29298 -0.018732 -0.041224 0.15739 -0.50681 0.015694 -0.22762 0.30594 0.13233 0.51613 -0.93272 -0.13454 -0.41809 0.038856 0.26356 -0.75618 0.46498 0.2383 0.017937 -0.079948 -0.16062 0.014264 -0.20551 0.71776 0.0166 -0.49385 -0.16343 0.092914 0.204 0.13002 -0.41165 -0.11277 -0.10668 -1.0427 1.1279 -0.30961 0.075764 -0.47299 -0.20978 0.61647 0.054595 -0.68602 0.63839 0.17122 -0.40632 0.12817 0.26078 -0.31193 0.30241 0.060871 -0.2612 -0.80515 -0.11566 0.12092 -0.48971 -1.2382 0.10951 0.085958 0.01147 0.13104 -0.20179 0.57751 -0.62215 -0.88913 0.12289 -0.1726 0.018262 0.38354 -0.47948 0.55417 -0.58338 0.38307 0.50977 -0.099106 0.63518 -0.17222 0.39449 -0.26098 -0.22719 -0.83455 -0.60092 -0.60485 -0.13595 0.027192 -0.19445 0.29589 -0.57058 0.35789 -0.16344 0.78598 0.01379 -0.66649 -0.57445 0.2131 0.18249 0.42081 -0.61079 -0.53476 0.04191 0.28604 0.011699 -0.95815 0.148 -0.67395 -1.2013 0.22679 0.38162 -0.73691 0.66124 0.33615 0.28297 -0.2152 -0.21437 0.093196 0.82993 0.18587 -0.39898 0.28807 -0.10973 0.29911 0.14277 -0.035646 0.88626 0.12196 -0.39497 -0.011766 -0.27527 0.47333 0.64477 0.20972 -0.097569 0.50155 -0.064587 0.22756 -0.50571 -0.44028 -0.20659 0.21082 -0.019214 -0.6878 0.70952 -0.40781 0.4098 0.53055 -0.40503 -0.30001 0.12294 -0.21485 0.53848 0.40304 0.61642 -0.26814 -0.39839 0.52754 -0.17221 -0.2238 0.43882 0.66294 0.29364 0.56044 0.017023 -0.75898 0.56669 -0.14496 -0.31968 -1.7318 -0.076359 -0.10347 -0.26574 0.0282 -0.073592 0.32414 -0.70879 0.68843 0.24899 -0.28531 -0.067306 0.20435 0.23089 -0.68097 -0.57258 0.24223 0.004072 -0.32392 0.4131 -0.11309 -0.58838 -0.15382 -0.19081
scale -0.10422 0.47644 0.052748 -0.8608 -0.01408 0.30135 -0.16274 -0.8502 -0.37837 -1.4327 0.45461 0.80585 -0.12449 0.52513 0.07021 0.073543 0.32835 0.04522 -0.31073 -0.2369 0.107 -0.61748 0.20416 -0.24092 0.18009 0.65296 0.19925 -0.44011 -0.0053267 0.13298 -0.21175 0.63212 -0.33876 -0.37292 0.30891 0.045781 -0.36946 -0.18908 -0.1762 -0.25401 -0.053117 0.31668 0.42445 -0.14971 -0.1064 -0.15779 0.17191 -0.19544 0.50855 0.30646 0.39451 0.26528 0.40602 -0.15312 -0.072472 0.20446 0.056335 -0.28937 -0.21321 -0.091759 -0.31289 -0.27243 -0.068894 -0.20741 -0.71101 0.16894 0.37865 -0.074157 -0.16045 0.31112 0.81274 0.12906 0.071641 0.2606 0.024546 -0.04847 -0.32007 -0.034946 0.2267 -0.01019 0.12531 -0.40542 -0.54232 -0.18951 0.8678 0.054836 -0.52188 -0.14599 -0.20502 0.44134 -0.2452 0.27666 -0.2008 -0.25125 -0.22839 -0.68106 -0.20463 0.12836 -0.0034516 -0.060135 -0.32149 0.35236 -0.13967 0.069547 -0.53633 -0.28222 -0.3208 0.25056 0.7333 0.24174 -0.14715 -0.33649 -0.11439 0.058302 0.54849 0.63494 0.61868 0.1289 -0.43516 -0.41109 0.22708 0.081819 -0.14597 0.29494 -0.092343 0.37584 0.73188 0.4388 -0.6958 0.14827 -0.08116 1.1741 -0.10317 0.24845 0.073802 -0.072905 -0.76192 0.0034817 0.23038 0.053719 -0.14853 0.36162 0.12148 -0.069684 0.36054 0.024634 0.21399 0.25077 0.15337 0.22677 -0.094112 -0.48151 0.21359 -0.022758 -0.18085 0.31372 0.10135 0.22158 -0.5293 -0.70469 0.12372 -0.17907 -0.26927 0.096032 0.047851 -0.78496 -0.41051 -0.2218 0.20136 0.14123 -0.053802 -0.17437 0.20208 -0.38544 0.17856 0.14473 0.21247 -0.010121 0.38192 -0.036604 -0.37341 -0.36783 0.0072502 -0.12242 0.0098549 -0.45472 0.19707 0.63501 -0.090489 0.24675 0.41299 0.59491 0.15139 0.047439 0.30098 0.11414 0.31383 0.30316 0.21629 -0.31883 0.40988 0.51164 -0.36798 0.0001462 0.2835 0.28903 -0.31058 -0.21054 0.39292 -0.49025 0.15068 0.33807 0.086577 0.052108 0.4247 0.32652 0.43035 0.58838 -0.17406 0.0029016 0.1466 0.071656 -0.096385 -0.45713 -0.18987 0.20767 0.46768 0.039306 -0.38358 0.10874 0.11359 -0.048295 -0.39808 0.11167 0.32064 0.1372 0.13283 0.043366 0.46162 0.13541 0.23823 0.25961 0.13038 -0.29866 -1.1084 -0.31604 -0.3104 0.47727 -0.18402 0.31758 0.044466 0.5471 0.11078 -0.32257 0.2051 0.13245 0.034179 -0.21291 -0.17594 0.56484 0.56389 -0.03568 0.81108 0.27866 -0.13737 -0.087789 -0.072359 -0.23945 0.91981 0.088943 0.17319 0.78589 0.16674 -0.17285 -0.11493 0.63837 -2.266 -0.39053 0.086849 -0.75519 0.10575 0.38015 -0.039449 -0.22715 0.37083 -0.36116 -0.90504 -0.48549 0.55617 0.34535 -0.24174 -0.45013 -0.24966 -0.14454 0.40074 1.1494 0.4431 0.096114 0.52389 -0.11118
cricket -0.23123 -0.18504 0.9727 -0.55385 0.35469 -0.49853 0.078381 0.15589 -0.57842 -0.63902 0.31587 0.46013 -0.21483 -0.48317 -0.23594 0.44006 -0.37841 -0.47775 -0.21576 -0.73563 -0.5871 -0.42414 -0.046666 0.121 -0.20461 -0.078519 -0.57571 0.57062 -0.027418 0.21721 0.09492 -0.26111 -0.10887 0.60582 -1.1464 -0.054339 0.62379 0.54824 -0.99599 0.11322 0.47278 -0.15396 -0.077555 0.19694 0.90732 -0.138 -0.26418 -0.30362 -0.066149 -0.28059 -0.50198 0.15749 -0.54039 -0.2655 0.53526 1.1434 -0.4201 0.37817 0.75975 -0.13638 0.228 -0.37519 -0.52711 -0.18501 0.21363 0.066391 -0.028528 -0.61708 -0.10625 0.15365 0.00060403 0.49068 -0.22734 -0.0069459 -0.22 -0.49398 0.047864 -0.12061 -0.53575 0.35152 0.10681 0.93123 -0.0039832 -0.27425 -0.6882 0.033878 0.34214 -1.0025 0.81095 0.12966 0.23002 0.21642 0.77073 0.0087894 0.084169 0.83739 0.50676 -0.54487 0.11265 -0.27069 -0.065653 0.213 -0.34331 -0.40243 0.031972 0.40812 0.62503 -0.10856 -0.059055 0.46214 0.81939 -0.56518 -0.16799 -0.27428 0.77346 -0.19873 0.28338 -0.029521 -0.57626 -1.3326 -0.11471 0.30263 0.019199 0.58395 -0.58005 0.18032 -0.39232 0.078212 0.4005 0.85741 -0.27504 0.43754 -0.15197 -0.87399 -0.020245 0.077934 0.52804 -0.42803 -0.82279 -0.23707 -0.17606 0.4567 0.60055 -0.14517 -0.67833 0.036303 0.41575 -0.20639 -0.27442 0.28542 -0.15518 0.19916 -0.50771 0.03713 0.061089 -0.90169 -0.41101 -0.2831 1.209 0.37875 -0.42463 0.27759 -0.42862 0.33887 -0.13108 -0.038334 -0.11915 0.35296 0.13399 -0.46349 -0.18514 0.41319 -0.47711 0.39412 0.53735 0.64016 -0.24874 -0.18962 -0.05672 0.6075 0.055753 -0.47889 0.23055 -0.21645 0.31835 0.51041 -0.34633 -0.096568 -0.66367 -0.46395 0.077497 0.46414 0.66109 -0.15174 -0.24224 -0.21317 0.89861 0.32563 0.55744 -0.52804 1.2031 0.55218 -0.443 -0.63643 0.034544 -0.26351 0.75924 -0.058874 -0.098555 -0.6749 0.17783 0.5522 -0.4672 0.71648 -0.47337 -0.43077 -0.88287 -0.091973 0.62097 0.013032 -0.05708 -0.32762 0.20057 -0.69407 0.26803 -0.50518 -0.24905 -0.20206 -0.69509 0.58982 -0.24979 0.219 0.24693 -0.36082 0.0093912 -0.072602 0.31267 0.7537 0.36912 -0.081775 0.49712 -0.61182 -0.26855 -0.12598 -0.23129 0.58628 -0.62203 -0.060901 -0.62167 0.061851 0.62122 0.21175 0.052442 -0.67968 0.29546 -0.074007 0.97858 -1.0487 0.46387 -0.088708 0.15933 -0.065922 0.001748 0.48965 0.39904 -0.031911 0.077884 -0.33294 -0.14298 0.45756 0.064121 0.017408 0.17751 -0.14877 0.93409 -0.1742 -1.168 0.28617 0.40459 0.17691 -0.16609 -0.31321 -0.014296 0.25513 -0.14187 -0.67893 -0.29381 -0.81199 -0.16771 -0.14072 -0.18661 -0.12551 -0.58611 -0.38505 -0.056368 0.13301 0.6792 -0.13006 0.31948 0.023354
library -0.68122 -0.35798 -0.4063 -0.2 0.74704 0.2271 -0.029903 0.024385 0.26242 -0.90463 0.26275 0.049628 0.4355 -0.13678 0.19377 -0.045098 0.012177 -0.16112 0.16721 0.07945 0.23475 -0.60962 0.051913 0.2846 0.41384 0.47747 0.0035384 0.087306 -0.068518 0.21844 0.50751 0.16121 -0.29472 1.2226 -0.52677 -0.11074 0.08852 -0.18236 -0.33008 -0.54383 0.039699 -0.42128 -0.25302 0.99862 0.34643 -0.028196 0.84536 0.12466 0.044327 -0.59932 0.11842 -0.021544 -0.16092 -0.018458 0.41756 -0.34332 0.15159 0.17769 -0.34892 0.16966 -0.16986 0.1916 0.55266 0.4237 0.3735 -0.30148 0.028538 0.06972 -0.30862 -0.48402 -0.51447 -0.34977 0.35005 0.40172 -0.24162 -0.25482 -0.30749 0.1383 0.51085 -0.30649 -0.3436 -0.25996 0.11883 -0.79753 0.14449 0.034823 -0.34217 0.3954 0.11995 -0.33662 0.05649 -0.23091 -0.20438 0.47653 0.47175 0.19396 0.4088 0.15428 -0.37011 -0.63714 0.1765 -0.39953 0.00046428 -0.033203 -0.057908 -0.37017 0.11917 0.20662 0.18944 0.25914 -0.54843 0.13956 -0.053076 0.098664 -0.89808 -0.061037 -0.26355 0.14067 0.25178 0.04418 0.025203 0.88968 -0.071839 -0.073751 0.1405 -0.12965 -0.23968 -0.21064 0.44086 0.43048 -0.068526 -0.14073 0.13989 -0.54546 0.26029 0.09465 -0.10552 0.34872 -0.55986 0.21573 -0.1043 -0.35651 -0.22976 0.30323 0.9207 -0.48946 -0.32257 -0.61099 -0.37295 -0.086901 0.51579 0.00033131 0.26226 -0.18087 -0.37651 -0.053141 -0.11698 0.16742 0.075069 -0.37094 0.34342 0.50411 0.30226 0.14509 -0.07381 -0.21881 0.038052 0.23757 0.20104 0.57422 0.034957 -0.68731 -0.48475 0.38479 0.38633 0.37428 -0.1218 -0.22977 0.12418 -0.92524 -0.097613 -0.016 0.2187 -0.5592 0.15838 0.019918 -0.12957 -0.13701 -0.20486 0.44865 0.064416 0.56226 -0.22144 -0.8769 -0.35555 0.15305 -0.18978 0.24435 -0.51835 0.10973 -0.016398 -0.23467 -0.14761 -0.18651 0.21012 -0.83854 -0.75484 -0.42714 0.096843 -0.37908 0.154 -0.00026077 -0.30159 0.072779 0.087236 0.39132 -1.0256 -0.21863 0.044161 -0.25545 -0.69388 -0.095192 -0.99168 -0.15194 0.21043 -0.3143 -0.54007 0.12345 -0.055586 -0.062424 -0.38888 -0.55077 -0.41949 0.16346 0.34042 0.29461 0.44867 0.24368 -0.45101 -0.26411 0.049711 0.22883 0.20203 -0.37849 -0.56254 0.24904 -0.63232 0.12873 -0.24663 -0.34467 0.47578 -0.35716 -0.22472 -0.56002 0.19918 -0.33084 0.074049 -0.18491 0.74349 -0.2041 -0.20005 0.7168 0.12378 -0.15663 -0.30726 -0.070305 0.28629 0.22409 0.072502 0.087407 -0.2024 -0.15236 0.52081 -0.5298 -0.30445 0.0062337 -1.7772 0.11753 0.66765 0.096245 -0.47349 -0.34314 0.46301 -0.84262 0.032507 0.57201 -0.45559 0.53726 0.06559 -0.29495 0.4085 -0.061119 -0.67523 -0.052092 -0.041854 0.051137 0.85856 -0.40234 -0.31178 -0.0061116
jean 0.33753 -0.39334 0.4299 -0.35561 0.15984 0.57387 -0.29888 -0.78525 -0.033779 -0.83035 0.56582 -0.55238 0.48414 0.44373 0.03678 0.027167 0.36922 0.1494 0.24744 0.60428 -0.37786 0.32919 0.45782 -0.9025 -0.23346 0.69193 0.27655 -0.20834 0.53046 0.64248 -0.54369 -0.067724 0.12151 0.3521 -1.0397 0.056767 0.93429 0.3293 -0.24958 -0.4889 -0.43178 0.19723 0.33455 -0.14452 -0.22282 -0.056506 -0.33149 0.53526 -0.59527 -0.13287 0.20651 -0.0036114 -0.0062704 -0.0486 0.17217 0.10746 -0.010616 0.46928 0.94403 -0.83622 -0.48375 -0.19903 -0.07517 0.085339 -0.68143 -1.0438 0.075099 -0.105 -0.16193 -0.2039 -0.00748 -0.47205 -0.70924 0.53401 0.11628 0.079925 -0.073379 0.034226 -0.26928 -0.63476 -0.27512 0.52097 0.57366 0.75701 -0.27582 0.12454 0.080262 0.7507 -0.48521 -0.52625 -0.0084767 0.037337 0.23227 -0.34801 0.27115 -0.083996 0.30012 0.10272 -0.081329 0.11123 0.01303 0.19344 0.71379 -0.15586 -0.24806 -0.032799 -0.41164 -0.44059 0.34359 0.19592 -0.55082 -0.076093 0.44383 0.26207 -0.012764 -0.13881 0.70969 0.21398 0.3172 -0.36595 0.20107 0.95592 0.22836 -0.4763 -0.26939 0.082399 0.60041 0.016537 0.17575 0.012543 0.36414 -0.37842 -0.2253 -0.5555 0.51205 -0.61727 0.031742 -0.27481 0.093271 -0.0065986 0.051319 -0.026868 0.29487 0.18608 0.49763 -0.20331 0.44589 -0.33758 0.0097054 0.3702 1.1183 0.066326 -0.23817 -0.029276 0.41624 -0.0072443 0.38182 -0.093866 -0.19083 -0.044757 -0.421 -0.10352 0.32822 0.31525 -0.26348 0.24239 -0.17215 -0.039388 -0.10559 0.37916 0.27473 0.31837 -0.42062 -0.49199 -0.17405 0.045837 -0.060025 0.14719 -0.84766 0.54571 -0.26779 0.52683 0.13475 -0.14512 0.026488 -0.049822 -0.86609 0.53996 -0.12788 0.32438 0.27977 -0.43379 -0.045011 0.43493 -0.22405 -0.11197 0.24068 0.2054 -0.36271 0.21982 0.87978 -0.46026 -0.27219 -0.35248 0.67212 -0.45151 -0.5436 0.53047 -0.79225 -0.066067 0.56612 -0.62643 0.49239 -0.22831 0.45611 0.18272 0.26206 -0.73269 0.40653 -0.71255 -0.086414 -0.087696 -0.22774 -0.18422 0.15579 -0.071671 0.80709 0.098608 -0.042104 -0.50668 -0.024528 0.21359 -0.50555 -0.031837 0.010529 0.22188 -0.32286 0.95389 -0.060291 -0.13404 -0.0371 -0.015026 -0.076753 -0.018437 0.53159 0.28194 -0.12955 -1.2327 -0.23127 -0.54168 0.26553 0.40157 0.36115 -0.12155 0.72774 -0.34512 0.042618 -0.47991 -0.25981 -0.4991 0.29711 -0.40333 -0.87449 0.56152 -0.49433 0.72925 -1.0089 0.83947 -0.26252 -0.55804 -0.31177 0.22455 0.021852 -0.31039 0.29368 0.84701 -0.32313 0.0060818 -0.055403 -0.35466 0.63313 0.28689 0.078089 -0.79863 -0.099933 0.47237 0.32617 0.13144 -0.60336 -0.42629 0.27377 -0.052486 0.51272 -0.14654 -0.29292 0.18033 -0.6468 0.73137 -0.23283 0.12371
file -0.76903 0.3715 0.19535 -0.4491 -0.12431 -0.57849 0.22827 0.020944 0.065787 -0.9892 -0.64881 0.5469 0.23354 0.12291 -0.39472 -0.35558 -0.11767 -0.37978 0.61395 0.02252 0.42183 -0.45179 0.4445 0.15007 -0.38359 -0.0133 0.2682 -0.18359 0.42445 0.58189 -0.57611 0.30329 0.53778 -0.22199 -0.54463 -0.58945 0.047473 -0.53674 -0.33736 0.25531 -0.31512 0.065586 -0.32842 1.1193 -0.13412 -0.22698 0.048308 -0.18666 -0.20533 -0.48719 0.51674 0.3898 0.078112 -0.64693 0.012019 -0.1384 0.10078 0.052649 -0.43888 -0.027717 -0.1074 0.43273 -0.27333 0.43102 -0.34919 -0.1473 0.034178 -0.083501 0.51348 -0.16618 -0.070473 -0.25689 0.12047 0.74539 -0.0066173 0.11436 0.2259 0.23411 -0.0054304 0.18421 -0.87801 0.22616 -0.49231 -0.4333 0.26943 -0.71528 -0.55878 0.55128 -0.40383 -0.10317 -1.1417 0.16921 -0.28471 -0.39346 0.30317 0.40405 -0.34641 -0.36785 0.74907 -1.0217 -0.2968 -0.38578 0.2328 0.15736 0.18318 -0.77046 0.10828 -0.52319 0.04697 -0.13675 -0.0027819 0.3269 -0.39313 0.35171 -0.45959 0.22001 0.024467 -0.13859 -0.064838 -0.62009 0.52741 0.29582 0.10525 -0.056997 0.055108 0.5712 -0.12428 0.31435 0.53062 0.12829 0.31243 0.003634 -0.083044 0.12999 0.83274 -0.33752 0.1643 -0.15535 0.3862 -0.10919 0.12219 -0.21437 -0.38165 0.35017 0.082387 -0.055226 -0.032636 -0.34742 0.44214 0.2037 0.1954 0.095476 0.47685 -0.10369 0.17301 -0.18501 0.71941 -0.59467 0.62043 0.01309 -0.46894 0.071939 -0.21056 0.27847 0.066076 0.21246 -0.05278 0.31908 -0.95051 0.072982 -0.34635 0.21942 -0.74173 0.29899 0.055173 -0.46085 0.0020191 0.90947 0.25768 -0.27164 0.48104 -0.15357 0.30324 -0.18765 0.14671 -0.15712 0.28479 -0.087308 0.68906 0.59633 -0.018514 0.31271 -0.32947 0.16947 -0.072877 -0.20894 0.37541 0.14285 -0.98348 -0.23055 -0.34912 -0.54132 0.36679 0.038715 0.23558 0.25578 -0.46594 -0.28709 0.12389 -0.2387 -0.535 -0.41451 0.090517 0.36244 -0.2777 0.087204 -0.37653 0.48649 -0.18853 0.38803 -0.80494 0.2257 0.3851 0.61677 0.023912 -0.05227 -0.15134 0.14749 0.36554 -0.24159 -0.64558 0.093586 -0.075377 -0.46547 0.20722 0.13902 -0.24626 0.031372 -0.13036 0.26237 0.08758 -0.35416 0.22381 -0.19578 -0.302 0.2061 -0.12895 -0.33997 -0.24361 -0.40958 -0.27968 0.60149 -0.09311 -0.55945 -0.028812 -0.28058 0.2621 -0.18932 0.12182 0.28871 0.085054 0.39389 0.46331 0.62242 0.49546 -0.013065 -0.52796 0.095707 0.18993 -0.41211 -0.62453 -0.53071 0.69382 0.30115 -0.3222 0.43275 -1.6738 0.63723 1.1152 0.058362 0.13903 -0.16569 -0.099041 0.15536 -0.50811 -0.5586 -0.21102 0.25376 -0.042098 0.0033326 0.95809 -0.0014961 -0.085847 -0.11232 -0.17342 0.076014 0.00333 -1.0176 0.13755 -0.49263
ski -0.2456 -0.024514 0.17007 -0.60126 0.10477 0.78609 -0.16012 0.34629 -0.45862 -0.41353 -0.22077 -0.57935 0.49726 0.41456 -0.33896 0.48534 0.56598 0.32806 0.38538 0.26254 -0.032265 -0.12624 0.44177 0.29193 -0.24013 -0.54687 0.0073881 -0.15865 -0.33064 0.3323 0.021981 -0.50798 0.25764 0.23013 -0.61841 0.33956 -0.16454 -0.79904 0.32114 -0.089952 -0.92268 -0.29889 0.3315 0.22361 0.24749 -0.1549 0.33682 0.15525 0.53153 0.092038 -0.3088 -0.73061 -0.030248 0.30377 -0.79524 1.2062 -0.62389 -0.48672 0.57564 0.50428 -0.21004 0.24807 -0.31794 -0.47982 -0.15947 -0.17625 -0.94571 0.58352 0.082678 -0.66432 -0.47912 0.37581 -0.21484 0.4175 -0.40444 -0.13924 0.21701 -0.46208 -0.11732 -0.72642 -0.13832 -0.15623 0.11328 -0.31054 -0.051319 -0.16172 -0.29379 -0.22636 -0.18443 -0.26742 -0.30627 0.13336 0.2325 -0.3413 0.54429 -0.11358 0.1459 0.49265 0.42488 0.27371 -0.31395 0.52538 -0.23554 0.2464 -0.3375 -0.44685 0.86232 -0.27045 -0.61313 0.016065 0.032677 -0.27685 0.26394 0.025474 0.37809 0.1207 -0.015443 -0.35345 0.18424 0.89361 0.79243 0.68331 1.3143 -0.65017 0.0031882 0.78473 -0.37347 -0.029667 -0.42269 -0.6974 -0.37372 0.35626 -0.71429 -0.10339 0.078062 0.60898 -0.77249 0.29278 -0.29992 -0.77523 -0.27679 -0.033365 -0.46802 0.11866 0.2729 -0.20428 0.87133 -0.095677 0.36144 0.61868 0.68779 0.39981 -0.051903 -0.30997 0.7736 -0.43611 -0.28818 -0.31572 0.44773 0.46653 0.82119 -1.3907 -0.43161 -0.76945 0.24122 0.078567 0.61333 -0.082435 0.54371 -0.92147 0.054742 0.26891 -0.24718 0.33701 -0.092006 0.10794 0.87832 -0.057979 0.2387 0.72614 0.70375 0.32979 0.46587 -0.23137 0.71731 0.29367 -0.22495 -0.28128 -0.58463 -0.067264 0.26066 -0.079138 0.079205 -0.18766 -0.45886 -0.33375 -0.92823 -0.095479 0.38377 0.34759 1.0586 0.12889 -0.36229 -0.11818 -0.37272 0.2214 -0.34574 0.45206 -0.57062 0.015423 -0.16194 -0.17761 0.11266 -0.54942 0.25191 -0.15115 0.19823 -0.78431 0.35931 -0.67417 0.38636 -0.21074 0.26984 -0.61125 0.69801 -0.27541 -0.49955 -0.45242 -0.40692 -0.31984 -0.25933 -0.11629 0.30559 -0.48432 0.55281 -0.30429 0.16994 0.47086 0.074629 0.16181 0.33072 0.21463 0.12146 -0.64172 -0.68007 -0.38546 -0.30026 0.41631 -0.90539 0.038857 -0.96782 0.30451 0.77124 -0.46346 0.070367 -0.06433 0.21742 -0.69223 -0.14336 -0.053136 -0.18618 -0.68883 -0.11564 0.21775 -0.15376 -0.17966 0.13512 0.46784 0.29622 -0.12424 0.28988 0.26008 -0.11092 0.19114 0.53067 -0.66648 -1.1717 -0.090379 -0.64214 -0.30614 0.15323 -0.71041 0.26454 0.11857 -0.72607 -0.19667 0.089585 -0.12465 -0.066863 -0.20067 -0.0031872 -0.20019 -0.80872 0.035577 -0.61189 -0.63543 -0.0056135 0.12638 0.5624 0.38494
hip -0.12105 -0.14296 0.092774 0.37714 -0.43449 -0.097493 -0.39065 -0.35706 -0.071977 -0.21341 0.12922 -0.26909 0.23844 0.592 0.24278 0.19791 -0.34999 0.73386 0.054655 0.2696 -0.44949 0.41621 -0.28707 0.12682 -0.87106 -0.089376 -0.12832 -0.33355 0.24033 0.67841 -0.45272 0.3781 0.037903 0.20654 -0.83273 0.19635 0.30526 -0.23732 0.49294 0.57534 -0.13191 -0.45244 -0.35981 -0.1305 0.20665 0.61668 0.29592 -0.54823 -0.39188 0.71217 0.24376 -0.47304 -0.50223 0.027406 -0.56482 0.088751 -0.30239 -0.2291 0.013031 0.32643 -0.12184 -0.15774 -0.13444 0.2616 0.1458 0.68659 0.33881 0.66736 0.27829 0.3864 0.090359 -0.4872 -0.03183 -0.0019071 -0.25425 -1.0296 0.50787 0.005343 -0.019766 -0.10566 -0.36643 -0.21386 0.22348 -0.18339 0.39482 0.10216 0.56767 0.11159 -0.79998 0.075779 0.078076 0.30521 0.0099241 0.18695 0.08494 -0.56331 0.52491 -0.50975 0.66594 -0.97655 -0.14827 0.19407 0.75668 -0.17162 -0.11418 0.40347 -0.55897 -0.63234 -0.1857 -0.059385 -0.025309 -0.20284 -0.5468 -0.46016 0.45653 0.013427 -0.86744 -0.86029 -0.069147 -0.4449 -0.14058 0.032997 0.094303 -0.26198 0.088048 0.32929 -0.0094125 -0.39459 0.48845 0.41903 0.41243 0.19063 0.17979 0.10496 0.094038 -0.20167 -0.1037 0.25082 0.31092 0.031982 -0.35548 -0.2512 -0.00068229 0.62026 -0.15822 0.36701 -0.26198 0.33142 -0.074887 0.451 -0.16239 -0.37575 0.04023 -0.37056 0.63866 -0.071626 0.034966 0.029958 0.20827 0.22184 0.37656 -0.045489 -0.68691 -0.36162 -0.0048278 0.2308 0.15174 0.65808 0.47832 -0.15665 0.48476 0.83082 -0.26659 0.086334 0.27229 0.12956 -0.081937 -0.14848 -0.24056 0.1124 -0.15426 0.26338 -0.16445 -0.21533 0.067555 -0.015381 0.63549 -0.014172 -0.22606 -0.15257 -0.16866 -0.02297 0.027648 0.92924 -0.49872 0.43399 -0.22262 -0.086235 0.42402 0.52963 1.277 -0.39514 0.4609 0.10172 -0.39736 -0.090414 -0.52319 0.51963 -0.13985 -0.060211 0.12178 -0.37109 -0.11894 1.2736 0.63292 -0.071002 0.38728 -0.6664 0.30341 0.072703 -0.22133 -0.13078 0.34633 0.32189 -0.14061 0.34454 -0.19764 -0.40549 -0.28862 1.0178 0.34897 0.31804 -0.45428 0.097044 0.16478 0.022087 -0.18722 -0.48664 -0.59108 -0.30762 0.70867 -0.26352 0.025145 0.15123 -0.30174 -0.068915 -0.64193 -0.32844 -0.4814 0.63829 -0.015644 0.50389 0.27523 -0.25454 -0.41853 0.25219 -0.033075 -0.48509 0.43582 0.068377 0.34992 0.084025 -0.4862 0.063809 -0.74058 0.15343 -0.86162 0.2875 -0.25278 0.23747 -0.30108 -0.42113 0.098924 -0.91144 -0.30509 0.26455 -0.96129 0.4654 -0.20574 -0.029589 -0.42277 -0.34933 -0.31498 1.1232 -0.92555 0.33317 -0.49774 0.36735 -0.25753 -0.23961 0.46693 -0.08707 -0.15937 0.51411 0.020055 -0.24388 0.10913 -0.2323 0.061163 -0.19156
pitcher 0.41172 0.7164 -0.24746 0.24382 0.020406 0.85625 -0.71689 -0.31223 0.28727 0.13967 0.25251 -0.11458 -1.1056 -0.016362 -0.43942 -0.10217 -0.65559 -0.035897 -0.017329 -0.28603 0.060483 -0.3487 -0.58866 0.079079 0.27037 -0.25237 -0.86865 0.18559 0.11962 0.11636 -0.22652 0.212 0.077938 -0.88932 -1.1464 0.72669 -0.12867 0.029382 -0.84619 0.6837 0.2496 -0.11304 0.47655 0.48123 -0.42273 0.19814 -0.18434 0.1047 -0.46738 0.48867 -0.1139 0.0090778 -0.70605 -0.30182 -0.42535 -0.13007 0.54933 0.0496 -0.15333 -0.014723 -0.16726 -0.55406 -0.090672 0.25154 -0.23493 -0.84206 0.14879 -0.17979 0.41725 -0.014638 0.83154 -0.051155 -0.60323 0.29944 -0.86892 0.032349 -0.042232 -0.30327 0.47044 0.072253 -0.30243 0.2286 -0.79015 0.29512 -0.36494 0.24877 0.046446 -0.28349 0.1952 0.45091 0.17072 0.19963 -0.34914 -0.22808 -0.0018885 0.25403 0.33597 -1.6899 0.5398 0.41027 -0.61181 -0.27779 -0.61238 -0.073437 0.43643 -0.20027 -0.12383 0.00024153 0.060551 0.46393 -0.60171 -0.24055 -0.32935 0.21621 0.5212 0.015171 -0.68375 -0.01166 0.35514 0.088091 -0.20049 -0.36443 -0.64346 0.022237 -0.27845 -0.15414 0.77176 0.029441 0.47368 -0.28775 -0.33079 0.76862 -0.17481 0.0078511 -0.19487 0.13297 0.035556 -0.18308 -0.11425 -0.16136 0.45201 -0.42761 -0.034826 -0.41829 -0.28398 0.10671 -0.66264 0.37753 -0.36413 -0.066496 0.35516 -1.207 -0.15143 0.090315 -0.093058 -0.1358 -0.051206 -0.92757 -0.2947 -0.059384 0.0064282 -0.71226 -0.37118 0.0083493 -0.27008 -0.1564 -0.11218 0.76489 0.59384 -0.34084 -0.16549 -0.17936 -0.66167 -0.21149 -0.33101 -0.050277 0.59269 -0.52566 0.1371 0.15724 0.48281 0.34675 -0.15846 0.43013 -0.37972 -0.041015 -0.24619 0.11161 0.0095463 0.83495 -0.65409 0.91985 0.41624 -0.20612 0.55149 0.016024 -0.0060882 0.10515 0.21809 -0.1431 1.5814 0.48196 0.95792 -0.7485 -0.083124 0.46339 0.65114 0.087237 0.2847 0.32856 0.20259 0.24834 0.067409 -0.71361 -0.051967 -0.22522 -0.26952 0.28615 -0.26067 0.051582 -0.14078 0.17301 0.017216 0.31033 0.28712 0.35303 -0.15178 0.11443 0.37444 -0.70595 0.29332 -0.24731 0.19768 0.47095 -0.82118 -0.17595 0.2609 0.2421 -0.41574 0.18512 0.083967 -0.089935 -0.27986 0.23191 0.21008 -0.39656 0.24931 0.70539 -0.073523 -0.53945 0.70997 -0.61537 0.031468 0.24438 -0.0099926 -0.19619 0.0025205 -0.95355 0.16336 -0.70928 -0.71918 -0.4084 -0.23049 0.15733 -0.11246 0.22962 -0.38418 0.81405 0.09694 0.4557 -0.078018 -0.56171 0.62115 0.087919 0.19537 0.44911 -0.48455 -0.29979 -0.36229 0.24163 -0.18092 0.50053 0.97199 0.59313 -0.28914 -0.3266 0.25603 -0.60135 -0.029832 0.30901 0.24921 0.25561 -0.35236 -0.13232 -0.32819 0.23035 0.64127 -0.96473 0.43471 0.10232
swing 0.09517 -0.65088 0.043772 -0.31517 -0.52495 0.099052 0.070594 -0.10479 -0.26327 -0.3585 -0.33906 0.027276 -0.14745 -0.080371 0.377 -0.23643 0.29255 0.3643 0.42476 0.23272 0.59843 -0.21459 0.19686 -0.049119 -0.046211 -0.0063821 0.21157 -0.087395 0.0079025 0.32634 0.022676 -0.0022386 -0.091598 0.21306 -1.1366 0.92608 -0.49175 -0.070151 -0.83894 0.48295 0.11754 -0.51743 -0.30523 -0.80243 -0.16913 0.18856 0.34971 -0.74158 -0.31127 -0.35437 -0.4843 -0.052648 -0.37813 -0.32093 0.031742 -0.30651 -0.25495 -0.28827 0.13794 0.63115 0.46698 -0.17603 0.28919 0.25696 -0.177 -0.077771 0.36507 -0.071937 0.026443 0.050938 -0.13313 -0.087642 0.02086 0.32736 0.10502 -0.3816 0.099027 0.24424 -0.1972 -0.59666 -0.20719 0.024001 0.31418 -0.20572 -0.064104 -0.35319 -0.18651 0.33261 -0.16505 0.26712 0.95294 -0.019722 -0.38181 -0.42024 -0.39551 -0.69993 0.16215 -0.96269 0.057896 0.29985 -0.52994 0.34808 0.42274 -0.27277 0.29048 0.28315 -0.41019 0.0087154 0.52758 0.022967 0.28617 -0.37568 -0.39307 0.36376 0.027894 -0.78002 -0.26831 -0.13679 -0.44736 -0.32211 -0.34009 -0.41371 -0.090287 -0.32478 0.24835 0.68684 0.95202 0.33794 0.043968 0.056356 0.15605 0.33049 -0.48542 0.010786 -0.3547 -0.053703 -0.42907 0.43986 0.088836 0.055089 -0.58836 -0.40016 0.078118 0.388 -0.55148 -0.12904 0.055268 0.066043 0.44792 0.012686 0.099097 0.22198 -0.386 -0.39533 0.24346 -0.60506 -0.024253 -0.30568 0.54193 -0.017403 0.021135 -0.2101 -0.75851 -0.11581 0.28122 0.009316 -0.053538 0.16809 0.36651 0.0085061 -0.15606 -0.26137 -0.51315 0.34028 1.2069 -0.198 0.24412 0.44809 -0.28432 0.037914 0.24906 0.1633 0.077653 0.52441 -0.16998 0.34647 -0.016889 0.15467 0.053063 -0.19272 -0.55661 0.42137 -0.091079 0.14073 -0.11008 -0.26348 0.67183 -0.17266 0.57432 -0.052108 1.1556 0.31915 0.085803 0.10475 -0.72192 0.46537 -0.066567 0.63909 -0.24013 0.40908 -0.036816 0.37729 0.66279 0.055814 0.027594 0.10919 0.15903 -0.19239 0.36441 -0.088363 -0.17471 0.24039 -0.20238 -0.34803 0.16696 0.029721 0.0054527 -0.036009 -0.3939 -0.23521 0.11674 -0.48758 0.1829 -0.067004 -0.18347 0.38094 -0.44022 0.32474 -0.27755 0.088186 0.72153 0.12575 0.055225 0.66246 -0.44515 -0.48463 -0.38492 0.30857 -0.42871 0.2818 -0.21859 -0.42028 0.045924 -0.41361 -0.089529 -0.43539 -0.10505 -0.11975 0.13007 -0.09346 0.6481 0.054721 0.19753 0.37738 -0.67299 -0.015449 0.037716 -0.14392 -0.092782 0.11346 0.020751 -0.47697 0.29875 -0.3729 -0.057651 -0.65201 -0.96895 0.40285 -0.036056 0.21503 -0.56837 0.13138 -0.01768 0.1 -0.36002 -0.35449 -0.24915 0.057303 -0.54045 -0.13454 0.40224 -0.22622 0.19854 0.80489 0.21735 0.58008 -0.22033 -0.74616 -0.47379 0.10227
shield 0.049525 0.19761 -0.16082 -0.52306 0.32888 0.2517 -0.40169 0.48879 -0.022557 -0.96934 0.051515 0.23149 0.030119 -0.11663 0.0097601 1.054 -0.18776 0.15493 0.24544 -0.75818 0.069216 -0.65888 0.47616 0.030801 0.12064 -0.50085 -0.46252 0.99888 -0.61813 0.19902 0.47858 -0.057381 0.10959 0.090821 0.071255 -0.065068 0.17964 0.2443 0.29941 0.33755 0.17947 -0.49116 0.301 0.5963 -0.2041 -0.19146 -0.97205 -0.48102 0.0179 -0.98019 -0.37762 0.45531 0.25889 -0.28669 -0.37356 0.13783 -0.29254 0.3262 0.53677 0.30079 -0.20395 0.34458 -0.66649 -0.30686 0.36658 0.2706 -0.75049 0.11811 0.24258 0.32754 -0.3574 0.033588 -0.21336 0.23105 0.09746 0.31129 0.079162 -0.25388 -0.46846 -0.036965 0.017617 0.28221 -0.4087 0.14981 -0.60949 -0.29922 -0.30996 0.27151 -0.16522 -0.51923 0.17486 0.32385 0.46775 0.35383 -0.65403 0.0050851 -0.0057916 0.31354 0.096029 -0.50455 0.22374 0.49514 -0.48181 0.41306 0.70824 -0.098307 0.080373 0.38327 0.52776 -0.0026832 0.62237 0.21804 -0.17314 -0.20157 0.10286 -0.41621 0.20273 0.011561 -0.081621 -0.4977 0.19411 -0.065746 0.056792 -0.13689 0.15268 -0.25208 -0.61043 0.14501 0.081849 -0.056791 0.10486 0.22661 0.31947 0.23052 0.53022 -0.26775 -0.38558 0.19417 0.52384 -0.20367 0.31244 -0.10424 -0.15219 -0.11699 -0.51048 0.48646 0.48415 -0.42882 -0.39607 0.29847 0.27531 -0.19755 -0.51229 0.041958 0.30282 -0.34299 -0.6938 -0.45788 -0.18241 0.3414 0.28033 -0.098134 -0.22254 0.67365 0.13337 -0.1422 -0.61455 0.41974 0.26603 -0.21288 0.24269 0.1974 0.085746 0.3429 -0.44244 -0.37132 -0.021627 0.58129 0.27475 -0.44565 0.12979 -0.73281 0.08643 -0.091255 0.05043 0.13247 0.11572 -0.21874 0.002688 -0.5507 -0.0099287 0.27549 0.15422 0.36101 0.10067 0.26321 0.62363 -0.34655 0.28676 -0.24605 1.0321 0.6434 -0.3678 -0.035868 0.17451 -0.27427 0.4672 -0.67773 -0.28747 0.094844 0.37031 0.32492 -0.13321 -0.29685 0.48588 -0.59772 0.034198 -0.05893 -0.22174 0.15771 0.067702 -0.022797 0.12857 -0.26199 -0.2396 -0.31744 -0.63312 -0.46413 0.070034 -0.19665 0.013094 0.12031 0.15905 -0.085705 -0.78805 -0.59201 -0.61021 -0.26597 0.37986 0.46836 0.15993 -0.39421 0.58216 0.24902 -0.60749 0.090044 -0.59039 -0.54334 -0.044872 -0.60353 -0.26288 0.31125 -0.0047708 -0.50044 0.24158 0.33046 -0.4263 -0.61246 0.10801 0.83394 0.15064 0.10572 0.57999 0.74143 -0.31173 0.35671 -0.341 -0.35969 0.11529 0.25007 0.51641 -0.30098 -0.091408 -0.1195 -0.3578 0.23268 -1.1716 -0.053635 -0.002977 0.24442 0.11049 -0.16028 -0.30522 -0.080207 -0.40921 0.22826 0.40972 -0.17128 0.64203 -0.21166 0.13348 0.095167 -0.17163 0.016611 0.82172 -0.53091 0.22075 0.10882 0.26805 0.065815
battery 0.017086 0.13187 -0.74831 -0.31415 -0.23482 -0.55229 0.67549 -0.57257 -0.14187 -1.2773 0.36899 0.28086 -0.084563 0.049445 0.548 0.08319 -0.40066 -0.32993 -0.33676 -0.63659 -0.077858 -0.08908 0.016687 0.0051626 0.34577 -0.67096 0.064281 0.014652 0.61247 -0.031838 0.42664 0.35257 0.47565 -0.10179 0.21704 -0.0099595 -0.086619 -0.091436 0.55321 0.58447 0.059417 0.39841 -0.003434 0.51847 0.018414 -0.70754 0.62096 -0.2388 0.27072 0.15827 -0.030708 0.082606 -0.13528 0.36888 0.52546 -0.12393 1.0023 0.1852 -0.033777 0.41162 0.23458 -0.32328 0.58099 0.063479 -0.17487 0.93155 -0.74508 -0.011164 -0.21413 -0.0088041 -0.014838 -0.035732 0.69329 -0.26154 -0.24273 0.18289 -0.3982 -0.24264 0.16441 0.014017 -0.43114 -0.018854 0.54766 0.04022 -0.077598 -0.11157 -0.37113 0.035234 -0.0064602 0.22607 0.65286 0.011712 0.072648 0.57612 0.021006 0.43105 -0.45 -0.1274 0.10527 -0.7959 -1.0716 -0.08116 0.025244 -0.31905 0.62772 -1.011 0.45082 -0.00040301 -0.72453 0.49107 0.54238 0.26091 -0.12855 -0.0066855 -0.11932 0.39503 -0.36684 0.12084 -0.16681 0.26677 0.109 -0.32676 -0.016767 -0.82741 -0.58336 -0.051627 -0.099155 -0.49586 -0.1663 0.81338 1.1511 0.36557 0.17693 0.057261 0.80555 0.10122 0.80693 0.23524 0.095644 0.024542 0.14653 -0.073356 0.093093 0.04939 -0.17792 0.42746 -0.27989 -0.72132 -0.53704 -0.015525 0.60195 -0.6072 -0.17568 -0.25392 0.60633 -0.37939 0.35745 0.2282 -0.53181 0.34503 -0.42963 -0.11945 0.28722 0.089727 0.0008991 0.0095735 -0.75582 0.034164 -0.13643 0.36136 0.60086 0.98593 -0.17106 0.12734 -0.28794 -0.56017 -0.56455 0.061823 -0.45721 -0.40269 0.25322 0.29361 -0.23805 0.0023098 -0.15931 0.13211 1.0028 0.40964 0.36015 -0.34583 0.17978 0.23204 0.30629 -0.39035 -0.47894 0.09337 0.12511 -0.35604 0.056632 -0.27958 0.16182 0.039917 0.064674 0.26872 0.2962 0.34664 0.43757 -0.17102 -0.019534 -0.13937 0.44384 0.045005 -0.43233 -0.1361 0.063402 0.14854 -0.13974 0.24821 -0.14121 -0.21903 -0.15029 0.37623 0.16791 0.2762 -0.32268 0.81314 -0.34817 -0.54484 0.54025 0.018999 -0.14512 -0.22937 -0.2218 -0.32823 -0.09428 0.072192 -0.73405 0.1918 0.16007 0.73319 -0.074789 -0.36164 0.15547 -0.15436 -0.68232 -0.52632 0.40044 0.30884 -0.19429 -0.70081 -0.17746 0.60018 -0.54498 -0.25483 0.22752 -0.33337 -0.21267 -0.28594 0.19492 -0.25253 0.039164 -0.31016 -0.57113 -0.091764 0.26408 -0.2121 -0.34508 -0.429 0.55633 -0.12808 0.2847 0.072829 0.14564 0.17903 -0.36656 1.3135 -1.32 0.50079 -0.71381 -0.081966 -0.17228 0.30683 -0.31298 0.041357 -0.15063 0.38723 -0.24302 -0.24104 -0.041549 -0.16755 -0.64915 -0.3602 -0.20844 -0.72396 -0.43344 0.47608 0.37881 0.31132 -0.043749 -0.12119
cinema 0.28792 0.19766 0.2357 -0.32417 0.47691 -0.25559 -0.48334 0.0198 -0.34501 -0.48631 0.22685 -0.071003 0.25187 0.40554 0.0060603 -0.74385 -0.48544 0.4042 0.026772 -0.030344 -0.001554 0.20621 0.12965 0.61306 0.32434 0.42161 0.072127 -0.32422 0.38067 0.39679 -0.046135 -0.010784 -0.2247 0.72048 -0.40408 -0.27829 -0.18954 -0.03501 0.27505 0.39984 0.22739 0.12943 -0.20068 0.80999 0.20426 -0.23484 0.73523 0.26736 -0.17111 -0.052426 -0.0016528 -0.71473 -0.017737 -0.16974 0.58967 -0.066595 0.087699 0.24022 0.4638 0.19194 -0.4178 0.15411 0.40695 -0.20118 0.48143 0.58805 0.29753 -0.040403 0.018453 -0.10134 0.30443 0.22309 0.012551 0.26077 0.286 -0.3141 0.14949 -0.38645 0.33988 -0.37744 -0.78912 -0.50931 0.52465 -0.29284 0.22162 0.17052 0.3235 -0.56507 0.55662 -0.10647 0.21654 -0.58999 0.33896 0.72262 0.28495 0.012008 0.54166 -0.44088 0.33961 -0.72997 0.062393 0.24483 -0.18085 -0.42735 -0.027051 0.0071847 -0.17 0.12092 0.38429 -0.036945 -0.086682 0.046517 0.19276 -0.082807 0.11581 0.044089 -0.24622 -0.033832 -0.21503 -0.28229 0.1526 0.16445 0.3369 0.027439 0.62384 -0.38729 0.031291 -0.07411 -0.70601 0.63863 0.073693 -0.52196 0.023468 -0.052503 -0.018512 -0.076158 0.15206 0.063553 -0.58376 0.56814 -0.18308 -0.33751 -0.31679 -0.0021087 0.54449 -0.81695 -0.039854 -0.26296 -0.58927 0.073717 0.33632 -0.22804 0.059516 -0.11913 -0.049392 0.26987 -0.33014 -0.20452 0.17398 -0.75476 0.53022 0.2687 -0.05481 -0.71901 -0.32974 0.2272 -0.19025 -0.092469 -0.3285 -0.079667 0.43847 -0.24253 -0.50548 -0.17274 0.18107 0.27015 -0.46532 0.034292 0.096735 -0.49486 -0.18549 -0.088488 -0.2921 0.90819 0.41207 0.29446 -0.36495 0.026802 0.13057 -0.025745 0.062434 -0.094352 0.34829 0.18181 -0.70228 -0.030373 -0.61794 0.44644 -0.014307 0.034676 1.245 -0.4704 -0.35606 -0.23589 -0.0066934 0.034827 -0.26967 0.47856 0.12708 -0.26172 -0.15779 0.12455 -0.28045 0.33937 -0.27312 0.62632 -0.10658 -0.88602 0.59806 0.51775 -0.49586 0.33074 -0.075227 -0.3753 -0.21453 -0.37996 -0.23517 -0.54229 -0.073532 0.31731 0.60805 -0.76892 -0.46911 -0.14218 0.28298 0.56771 1.0464 0.37043 -0.50594 -0.25624 -0.17095 0.071169 -0.05131 -0.042356 -0.33188 -0.044947 -0.3994 -0.18479 -0.86553 0.37826 0.44313 0.090208 -0.29752 0.991 -0.5839 -0.48052 0.05114 -0.22338 0.44004 0.11472 0.29655 -0.37065 0.18431 -0.040181 0.23177 -0.4759 -0.17358 0.36169 0.56638 0.2338 0.50167 -0.18262 -0.48731 -0.14593 0.38257 -0.40174 -1.1898 0.34021 -0.065975 -0.23736 -0.33711 -0.68734 0.13847 -0.49925 0.36457 0.33451 -0.38265 -0.21038 -0.089873 0.40624 0.26652 0.083225 -0.6411 -0.54072 -0.27304 0.48846 -0.20703 0.23192 -0.12493 0.16056
greenhouse 0.12113 0.019457 -0.18559 -0.11841 0.20925 -0.081571 -0.090506 0.11187 -0.47996 -1.0086 0.40251 0.43074 -0.12981 0.37397 -0.027276 0.13618 -0.98616 0.077171 -0.58995 0.97113 -0.16425 0.46007 0.022884 1.4379 0.42534 0.18035 0.016399 -0.30959 -0.25984 -0.44458 0.33869 0.69202 -0.098229 -0.46733 0.38608 -0.38988 0.84608 -0.15263 0.015025 0.22899 0.30387 0.14177 0.23458 0.11799 -0.79229 -0.15721 -0.059591 0.063418 0.050145 -1.2989 0.3689 -0.10026 -0.16836 -0.46571 0.71856 -0.35511 0.35677 -0.11177 -0.16223 0.0031649 -0.46632 -0.52558 0.37229 -0.4168 -0.25191 0.13058 -0.72503 0.61577 -0.94929 0.21805 0.18356 0.24981 0.0079732 -0.67187 -0.29151 -0.22355 -0.51488 -0.10464 -0.70408 0.00054841 -0.10429 -0.49402 0.81 0.14687 -0.083588 0.70976 -0.29933 0.487 -0.75072 -1.2926 0.0126 0.16192 -0.079679 0.071104 -0.3786 -0.75859 -0.2079 -0.054203 -0.33544 -0.23389 -0.54518 0.32331 -0.064184 0.61662 -0.3776 0.76515 -0.024172 0.32457 0.091884 0.35717 -0.62749 -0.04927 -0.096838 1.1757 0.053673 -0.30943 0.36054 -0.12055 -0.20816 -0.051213 -0.032458 0.3751 -0.18845 0.11707 -0.36897 0.41603 -0.54197 -0.71412 0.23844 0.14435 0.72328 0.51676 -0.012454 0.12327 0.40058 0.28546 0.19581 0.0044803 0.47956 -0.48552 0.2033 -0.0035079 0.91396 -0.055812 -0.40262 0.077923 0.19285 0.47946 0.24238 -0.057989 0.083409 -0.3135 -0.29179 -0.77713 0.086331 0.40959 -0.33913 0.1335 -0.71867 -0.35378 0.16048 0.31621 0.61247 -0.19005 1.0991 -0.68635 -0.55048 0.27584 0.043939 0.035754 -0.029617 0.48318 0.54192 0.078579 -0.071364 0.074133 0.45352 0.21817 -0.064331 0.29711 -0.95851 -1.0073 0.14929 0.10967 0.17799 0.087191 0.39165 0.090923 -0.31728 -0.089207 0.25206 -0.19133 0.55333 -0.38095 -0.28804 -0.49225 0.70269 0.96027 -0.11138 -0.31744 -0.42535 0.13419 0.47323 -0.13158 -0.27382 0.25572 -0.031557 0.26506 -0.41974 -0.49881 -0.11695 -0.54544 0.16755 0.26757 0.20565 0.57716 0.55684 0.36136 0.17945 -0.005144 0.68202 -0.35702 -0.22956 0.5093 -0.57015 0.0053007 -0.89505 0.81497 0.069292 0.036789 1.0918 0.12808 0.55689 0.28804 -0.15511 -0.20874 0.49225 0.040274 0.19208 -0.10461 -0.44219 0.066797 -0.34229 0.18231 -1.2067 0.24854 0.48048 0.012404 -0.19203 -0.85912 0.40426 -1.3391 -0.52225 0.020598 0.33459 -0.27512 -0.26591 0.55408 -0.18479 -0.14333 0.68845 0.25258 0.056786 -0.36806 -0.13015 -0.10181 0.41332 0.4113 0.087056 -0.85351 0.26599 0.2842 -0.31647 0.7539 -0.16223 -0.10625 -1.6293 -0.19609 0.32095 -0.2601 -0.34756 -0.32812 -1.2739 0.55393 -0.31421 -0.083429 0.29038 -0.58793 0.15973 -0.12459 -0.42652 0.10679 0.059684 0.30402 0.5109 -0.12444 -0.34488 0.28643 0.33046 0.34789
throne -0.010326 0.17392 0.50303 -0.07953 0.15179 0.30751 0.1578 0.022324 0.095032 -0.74643 -0.54595 0.032791 0.20207 0.18533 -0.33072 -0.10405 0.084319 -0.19007 0.061228 -0.51578 -1.029 0.96064 -0.60741 -0.47966 0.23257 -0.54193 -0.42097 -0.16395 0.10454 0.08473 0.11115 -0.36901 0.47257 0.12192 -0.064454 -0.23278 0.2009 -0.3629 0.30353 0.77987 0.038846 -0.40379 -0.43621 -0.083129 0.19487 -0.31614 0.41369 0.20131 -0.34703 -0.2721 -0.50079 -0.33966 0.45704 -0.75037 0.019396 -0.16654 0.793 0.34527 0.045905 0.28256 -0.34604 0.5632 0.62214 0.82981 0.60143 -0.92397 -0.21938 0.16925 -0.29782 0.26607 0.39726 0.13126 -0.45961 -0.23112 -0.05711 0.26349 -0.33537 -0.52108 0.37693 0.044275 0.61669 0.61949 -0.11786 0.81249 0.46161 0.22247 -0.25216 0.98627 0.15028 0.71239 0.030281 -0.83576 -0.21791 0.69788 -0.92953 -0.38837 0.26751 -0.063774 0.27333 0.25248 0.076167 -0.15225 -0.06429 -0.24785 0.12282 -0.31444 -0.34058 0.19301 -0.41582 0.15169 0.050555 0.8424 0.38736 0.37036 -0.058551 -0.097994 -0.1783 -0.11674 0.21436 -0.84188 -0.4756 0.61543 -0.50302 -0.53448 -0.42492 -0.1307 -0.16916 0.62047 0.2753 0.13926 0.017781 0.43387 -0.33413 0.2296 0.64988 -0.12335 0.12447 -0.15299 -0.23556 -0.72445 0.53065 0.34314 -0.40309 -0.42406 0.1365 -0.27516 0.054225 1.0949 -0.43618 -0.34682 -0.39638 -0.27178 -0.55564 0.17135 0.10671 0.87103 0.52597 -0.19364 0.037278 -0.34872 0.79551 0.81595 0.45397 0.53809 0.039269 0.20271 -0.21345 -0.34026 0.17915 0.59936 -0.63429 0.40455 -0.068373 -0.79092 0.10395 -0.43522 0.42039 0.49273 -0.10748 0.31916 -0.2194 -0.03761 0.062708 0.88724 0.19871 -0.35242 -0.50197 0.64032 -0.25933 -0.44239 0.37825 -0.83129 0.44569 -0.42803 0.017336 -0.14543 -0.37004 0.080523 0.32306 0.10518 1.4605 -0.35243 -0.31693 -0.16818 0.20058 -0.73731 0.45653 -0.22485 0.13991 0.055262 -0.08957 0.19862 0.61798 -0.11402 -0.28994 -0.30265 -0.15972 -0.90032 -0.48025 -0.27287 -0.44538 0.21025 0.078723 -0.17336 -0.89014 -0.09402 0.32828 0.48437 0.037665 0.070778 -0.40875 0.23957 0.44154 0.27439 -0.14392 -0.069369 0.081324 -0.14531 -0.4944 -0.19645 -0.4619 0.49473 0.64863 0.85232 -0.078246 0.59638 0.38219 -0.077532 -0.29892 0.014327 -0.46743 0.38387 0.5897 -0.42563 0.34387 -0.038621 0.026666 -0.02014 0.98776 -0.087836 -0.038459 -0.65141 0.47285 0.26412 -0.0044331 -0.047097 0.15346 -0.36995 0.80973 -0.20118 -0.081846 -0.54313 0.63786 -0.462 -0.68788 -0.77346 -0.65183 -0.72307 0.31227 -0.1824 0.68579 -0.5482 0.013679 -0.39017 -0.33781 0.0078221 -0.71247 0.48851 -0.63803 0.40717 0.67452 -0.14188 0.4732 -0.014224 -0.35951 0.035927 0.26589 0.095777 -0.2109 0.26497
admiral 0.053237 -0.3005 0.53386 -0.84404 -0.32325 0.040838 -0.62467 0.049264 0.045694 -0.66891 0.53084 0.34502 -0.17055 -0.052074 -0.41432 0.32323 0.48528 -0.89719 -0.043877 0.13401 0.29198 -0.25486 0.19831 -0.42291 -0.86663 -0.56411 -0.51912 0.30382 0.48416 0.33738 0.10271 -0.58806 0.79223 -0.064076 0.030912 0.19122 0.45294 -0.3395 0.21568 0.41994 -0.033739 -0.093433 -0.39178 -0.031809 0.024707 0.088306 -0.28665 0.0032457 -0.25701 -0.34271 -0.046582 0.17006 0.19573 -0.055037 -0.18049 0.34148 -0.44925 1.1428 -0.16121 -0.084263 -0.10211 -1.1185 0.71744 -0.079443 0.14059 -0.66444 -0.23143 -0.11631 -0.75897 -0.078293 -0.12144 -0.29027 -0.20489 0.004025 -0.96636 0.13675 0.55296 0.48495 -0.36539 0.50225 0.86949 0.67303 -0.058556 0.11522 -0.23133 0.46415 0.20379 0.41042 -0.41026 -0.24324 -0.075862 -0.044574 -0.20258 0.2192 -0.71194 0.13194 0.30577 0.12486 0.21375 0.055884 0.27116 0.15991 0.64163 0.41928 -0.32237 -0.22025 -0.69815 -0.066023 0.091227 0.13363 0.31648 0.67728 0.34943 -0.07577 -0.49342 -0.35225 0.11277 -0.10299 0.018849 -0.13423 -0.067371 -0.37906 -0.15751 -0.69656 0.42766 -0.24086 -0.50657 -0.83584 0.36301 0.13304 -0.35174 0.44884 0.034097 0.045415 0.52904 0.36406 0.19832 -0.75167 0.15093 0.29259 -0.56935 0.69022 0.72765 0.80527 -0.2558 -0.12798 -0.15348 0.22 0.03764 0.20935 0.99904 -0.69528 0.69865 -0.44761 0.87593 0.062315 -0.16334 -0.037565 -0.26014 -0.091185 0.23422 0.1237 -0.23593 0.028358 -0.31116 -0.16517 -0.13602 0.39167 0.49558 0.63718 0.15401 -0.10338 -0.046938 -0.89239 -0.040626 0.12626 -0.80877 -0.33653 0.6209 -0.37528 -0.33823 0.83433 0.058492 -0.059034 0.37591 -0.44746 -0.92807 0.56622 -0.091235 0.18644 0.42289 -0.20427 0.21643 -0.34535 0.37944 0.23443 0.20784 -0.070269 0.63862 -0.39007 0.23634 0.04869 -0.17163 0.28361 0.47092 0.20184 0.04736 -0.2715 0.8741 -0.48412 -0.14278 -0.85804 -0.01059 0.090782 0.051435 -0.33416 -0.13157 0.027615 0.29321 -0.59674 0.32389 0.030371 0.35024 0.0010243 -0.14556 -0.23698 0.55843 -0.089703 0.26079 -0.042131 -0.42274 -0.074316 0.14383 0.63658 0.10684 0.16779 -0.72386 0.28169 -0.10757 0.31305 0.018075 -0.67122 0.21351 0.51953 1.0462 0.15573 -0.84431 -0.2874 -0.75973 0.010909 -0.14681 0.28269 0.10901 0.46931 0.65727 0.25064 0.014245 0.10801 0.466 -0.20874 -0.015407 -0.31811 0.2738 0.012441 -0.47107 -0.79413 0.082437 -0.10652 0.16625 0.029214 0.36843 -0.53828 -0.033572 0.38877 -0.43343 0.18071 0.4169 -0.44479 0.38577 -0.45979 -0.094932 0.72069 0.42173 -0.40413 0.53223 0.15486 -0.60011 -0.41911 0.41965 0.28547 -0.33251 0.1302 0.26824 -0.01467 -0.68196 0.53103 0.55299 -0.17991 -0.42865 -0.25388
pot -0.30356 0.39761 0.02203 -0.32354 -0.10535 0.2975 0.79705 0.29355 0.55073 -0.3664 -0.057032 0.14914 -0.88283 0.69553 -0.54472 0.40925 -0.15719 0.44557 -0.038594 -0.091629 0.1237 -0.049562 0.048085 0.1865 0.046933 -0.57066 -0.16065 0.43298 0.23858 -0.50501 -0.61183 0.050056 0.053232 -0.030993 0.044619 0.31984 0.26469 -0.14081 -0.80472 0.20752 0.023658 -0.31933 0.17847 0.13292 0.52855 0.087329 0.66883 0.004633 -0.42465 0.46928 0.0099412 0.46377 -0.48274 -0.16772 0.33513 -0.22823 -0.10099 -0.21423 0.6817 -0.10401 0.068418 -0.10544 -0.16329 0.43877 -0.27554 0.056583 -0.23752 0.22509 -0.75194 -0.0017752 -0.090891 -0.067901 0.25959 0.01327 -0.61888 0.15064 0.9584 -0.25637 -0.10668 -1.2794 -0.5578 -0.16368 0.57035 -0.11698 0.17499 -0.25318 0.25438 0.17309 -1.0196 -0.54884 0.38397 -0.31325 -0.51818 0.079476 0.051207 0.022131 0.064061 -0.44477 -0.088335 -0.21463 -0.39363 -0.047664 0.26344 -0.36774 -0.10604 0.5541 -0.45163 0.078008 -0.21784 0.71259 -0.21827 0.011675 0.46823 -0.80925 0.24207 -0.15927 -0.65488 0.36585 0.37015 -0.38869 0.11656 0.21597 -0.14395 0.20559 0.34749 0.046381 1.0285 0.49632 -0.30514 0.97294 0.60497 1.0773 0.005551 0.081488 0.17055 -0.43511 -0.29251 -0.5087 -0.24508 0.20963 0.18732 0.53927 -0.20004 0.044457 -0.76899 -0.33503 -0.15826 0.55205 0.62255 -0.38117 -0.52333 0.25998 -0.37925 0.021352 -0.16009 0.44731 -0.42868 -0.19159 -0.28432 0.022524 0.34668 0.64641 0.44444 0.22167 0.14951 -0.042417 0.43941 -0.069015 -0.47784 -1.0159 -0.22428 0.23415 -0.281 -0.66337 -0.14933 -0.40546 0.068321 -0.1279 0.49923 0.20466 -0.46966 0.17484 0.65313 0.30781 -0.17486 -0.18115 0.74662 0.10081 0.22024 -0.8507 0.35078 0.39449 -0.53373 0.54031 -0.1988 -0.15568 -0.17851 1.0106 -0.19834 0.099891 0.46911 0.57858 -0.034612 0.098345 0.091095 0.19526 0.16574 -0.24149 0.014719 -0.07606 0.2849 -0.3248 -0.0085592 0.10745 0.10901 0.33667 0.049545 -0.08553 -0.28172 0.36138 -0.01732 -0.080381 -0.48382 -0.18714 -0.24843 0.18839 0.20062 -0.33583 -0.082204 0.1886 0.031231 -0.36394 -0.21215 0.52059 0.038726 -0.25 0.22741 -0.58225 -0.28362 -0.35178 -0.39819 -0.30365 0.21836 -0.10755 -0.42452 -0.21901 0.69913 -0.022881 0.12071 -0.51565 -0.091817 -0.41439 0.37798 -0.3237 0.48421 0.17212 0.39386 0.26949 -1.0704 0.008423 -0.3108 -0.2084 0.023115 0.049711 -0.17837 0.042563 -0.48692 -0.0062643 -0.25091 0.28514 -0.75881 0.3341 0.55812 0.53463 0.49699 0.44958 -1.1655 0.19181 -0.96405 0.19632 -0.052712 -0.36661 -0.61992 0.26042 0.25793 0.11214 0.20599 0.0082134 0.030733 0.91358 -0.22201 -0.031131 0.40623 0.48581 0.62087 -0.82647 0.64532 -0.43025 -0.47792 0.76646
pickup -0.14555 -0.10174 -0.31448 0.21711 -0.33214 0.076303 0.32196 0.34685 -0.59867 -0.38102 -0.45664 0.19726 0.053638 0.84697 -0.47816 -0.17669 0.34785 -0.22143 -0.024495 -0.66029 0.14944 -0.1586 -0.18022 0.064148 0.53581 -0.82942 0.4056 0.26318 0.75161 -0.011295 0.13912 0.35469 0.39616 0.015414 -0.06513 0.3974 -0.34296 -0.57172 0.32805 0.28548 0.64679 0.25823 0.26901 -0.5532 0.24005 0.47835 0.62405 -0.51546 -0.23495 -0.13195 0.10266 0.49176 0.10698 -0.14071 -0.054335 -0.33519 -0.093052 -0.22557 -0.02799 0.54755 0.36698 0.10238 -0.10603 -0.32906 -0.67074 0.25444 -0.3266 -0.23223 0.38912 -0.1312 -0.47522 0.32923 0.028837 0.54592 -0.25962 -0.11771 -0.05996 -0.317 0.47261 0.0087374 0.81594 0.16003 0.47804 0.37843 -0.17937 -0.17199 -0.043646 -0.06977 -0.41607 -0.023256 1.1906 0.0095391 -0.17094 -0.10427 -0.046708 0.06043 -0.61803 -0.15567 -0.12265 -0.33875 0.008861 0.48189 0.054123 -0.33315 -0.66278 -0.048269 1.1029 0.57112 -0.034284 -0.10002 0.36866 0.48077 -0.072207 -0.48854 -0.068385 0.35838 0.43572 -0.082037 0.40093 0.041613 0.42882 -0.29256 0.53136 -0.34892 -0.8103 0.15243 -0.41156 0.08667 0.30117 -0.51874 0.00035 1.0006 -0.074238 0.047512 0.35059 -0.13978 -0.0024609 0.14342 0.081109 0.66309 -0.34398 0.083342 0.33248 -0.086806 -0.40796 -0.055426 -0.16489 0.0048428 -0.23153 0.21415 0.60358 0.58098 -0.069511 0.33606 0.66629 -0.64551 0.142 0.22925 0.43356 0.43023 0.13621 -0.22735 -0.91542 0.18906 0.084868 -0.33917 -0.20877 0.60685 -0.40711 0.19664 -0.67313 -0.03008 -0.17676 0.078261 0.033433 -0.51183 -0.31689 0.051094 0.19511 -0.15776 -0.29667 -0.18907 0.35834 -0.26343 0.38978 -0.18232 0.035302 0.14899 0.44513 0.33284 -0.35492 -0.062822 0.086183 0.10272 0.092687 -0.099338 0.35574 0.46966 -0.13176 -0.033891 0.25171 -0.36547 0.60508 -0.055716 0.50473 -0.3692 0.080075 0.080977 -0.013775 0.13283 -0.34708 -0.10213 -0.011126 -0.070112 -0.45386 0.2259 0.33047 0.65098 -0.27182 -0.11729 0.36344 0.06559 0.37107 0.13603 0.56788 0.2484 0.059749 0.67617 0.49903 -0.32997 -0.2974 -0.22784 0.14536 -0.18543 0.79549 0.4203 -0.114 0.36254 -0.59651 0.0030947 0.65252 0.55546 0.12591 0.095829 -0.40612 -0.80369 0.72755 -0.67327 -0.29052 0.30351 -0.28077 -0.35335 -0.48315 0.17534 0.2062 -0.29261 -0.020448 0.46414 0.24314 -0.14164 0.32164 0.30332 0.23643 0.5678 -0.2275 -0.5314 0.70923 0.14776 -0.7785 -3.7776e-05 0.046929 -0.12061 -0.53692 0.18093 0.85201 0.20289 -1.2649 0.51131 -0.11948 0.11139 -0.79459 0.30542 0.34591 0.54527 0.47073 0.47267 0.29912 -0.32339 0.18467 0.048929 0.60889 0.09149 -0.066282 0.13864 0.3049 0.66092 0.41726 0.23467 0.60118 0.64892
spotlight 0.44329 -0.19005 0.53712 -0.11575 0.32238 0.10166 -0.33536 -0.087017 0.16707 -0.6196 0.30203 0.043247 -0.0065168 -0.15493 -0.27468 -0.33935 -0.55544 -0.22208 0.54797 -0.50352 0.031646 0.67156 0.036995 -0.42709 0.33296 -0.15212 -0.26203 0.20447 0.79238 -0.11617 0.22263 -0.77963 -0.24741 0.085642 -1.175 -0.21472 -0.22753 0.12859 0.42462 -0.26433 0.54903 -0.093277 0.39247 -0.11069 -0.053922 0.52721 -0.37766 -0.74573 0.054275 0.331 -0.13451 -0.14342 0.23154 -0.19225 0.44749 -0.31599 -0.023107 -0.57141 0.36376 -0.54747 -0.0091084 0.072109 -0.071341 0.33745 0.32271 0.012118 -0.12933 0.1447 -0.15336 -0.2308 -0.20608 0.085817 0.070509 -0.36728 0.02686 -0.098978 0.11063 0.15137 0.33641 -0.069233 -0.27785 -0.12417 -0.38539 -0.18972 0.36808 -0.14436 -0.12396 0.19589 0.011469 0.074612 -0.20328 -0.53165 -0.013441 0.60775 -0.13735 -0.28939 -0.50477 -0.36791 -0.36721 -0.86897 0.046509 0.18198 -0.46748 0.56486 0.25311 -0.363 0.1198 0.40171 -0.16983 0.097144 0.15796 0.061182 0.15215 0.28859 0.1373 0.26854 0.12572 -0.05428 0.21316 -0.49809 -0.61194 -0.0076246 -0.076529 0.11381 0.20421 0.10138 -0.23977 0.24768 -0.11023 0.11624 0.37298 -0.34001 0.34239 -0.0043592 0.024807 -0.24286 0.017413 0.17149 -0.11645 -0.33996 -0.077848 -0.13256 0.011924 0.44481 -0.22651 -0.31007 0.27402 0.23629 0.41029 0.47893 0.14548 0.079838 0.40131 -0.032193 -0.14654 0.011507 0.34354 0.17565 -0.029911 0.21423 0.19887 -0.52628 0.23202 0.18541 0.29419 0.017141 0.40597 0.034869 -0.24525 0.094857 -0.60587 0.29157 -0.68527 -0.13834 0.096086 -0.32685 0.37379 0.11013 0.30209 0.58636 -0.4954 -0.40982 0.218 0.074418 -0.0058742 0.25563 0.42562 0.15012 -0.34449 -0.57897 -0.085788 -0.85056 -0.48436 0.33915 0.0018465 0.14017 -0.0050753 -0.23135 0.26168 -0.18103 1.0427 -0.090671 -0.064977 -0.024424 0.33441 0.050757 0.30614 0.09191 -0.29962 0.40558 0.38328 0.21758 -0.28818 0.063798 0.60668 0.1844 0.091048 -0.17922 -0.16743 0.32786 0.20157 0.37276 0.15064 0.068377 0.14076 -0.52333 0.2294 0.078506 -0.19975 0.49929 0.10606 -0.12511 0.3716 -0.35512 -0.37582 0.08604 -0.81144 0.13858 -0.32086 -0.7784 0.021204 -0.13849 -0.20631 0.31638 -0.28824 -0.63173 -0.10756 0.29684 -0.26991 -0.2071 -0.31702 -0.18693 -0.049668 0.45399 0.24663 -0.41514 -0.10345 -0.65121 -0.51744 0.14504 -0.24314 0.022112 0.13284 0.16577 0.33052 -0.11775 -0.14432 0.55937 0.30911 -0.30358 0.27396 0.38114 -0.044146 0.041569 -0.010182 -0.10519 -0.64308 -0.049849 0.32008 0.27301 -0.63616 0.1528 0.11305 0.37474 0.20812 -0.46661 -0.19451 0.3248 0.074804 0.10303 0.4182 0.62328 0.15082 0.40468 -0.4056 0.66049 -0.32274 0.011954 -0.18139 0.35377
slot -0.17424 0.29736 0.088189 0.54668 -0.40835 0.65222 0.047427 -0.16906 0.3338 -0.2842 -0.26589 -0.080922 -0.11175 -0.43044 -0.12846 0.63472 -0.43788 -0.32057 0.16813 -0.19191 0.05123 0.24179 0.0042078 -0.50704 0.23779 0.3095 0.10113 0.39079 -0.049782 -0.19875 0.087031 -0.11065 1.0256 0.20332 -1.418 0.18558 0.71408 0.070757 -0.52162 0.43549 -0.24115 0.60016 -0.47557 -0.29061 0.63029 0.30239 0.63784 -0.37405 0.25733 0.28995 0.20958 0.14009 -0.028612 0.021121 -0.48439 -0.47867 -0.068903 -0.33275 0.42619 0.0054496 -0.18004 0.081015 -0.48573 -0.062911 0.064248 -0.67654 0.32798 0.30536 -0.1129 0.27996 0.47677 0.16331 0.080502 0.28271 0.60447 0.57799 -0.45702 -0.015882 0.756 -0.36433 -0.13321 0.3806 -0.40225 -0.58991 0.42313 -0.022325 -1.0588 -0.61271 0.019128 0.41081 0.4434 0.024905 -0.011849 -0.2989 -0.14766 -0.21408 -0.23297 -0.3145 0.21209 -0.7783 0.0076416 0.28075 -0.16546 0.061842 -0.1027 0.062298 -0.38886 -0.13814 -0.43977 -0.099811 -0.156 0.19905 0.77754 -0.030691 -0.62549 -0.032909 0.1806 -0.10269 -0.58761 -0.12793 0.15849 0.034075 -0.11908 0.1133 0.054193 0.30262 -0.10636 0.0093863 -0.28133 -0.67576 0.28592 0.42648 0.091472 -0.080782 0.40152 -0.65597 0.69063 0.023868 0.16652 0.64961 -0.55284 0.11997 -0.17603 -0.12175 -0.066108 -0.16627 -0.16585 -0.43565 0.29058 0.01256 1.0736 0.419 0.32315 -0.5364 0.73975 -0.20706 0.29504 0.83341 0.37274 -0.13019 0.63871 -0.063785 -0.26613 0.21257 0.43025 1.0219 -0.23353 -0.26636 0.017835 -0.32373 -0.35024 0.33443 -0.29348 -0.044447 -0.22945 -0.22811 -0.97849 0.87029 -0.12113 -0.098105 0.19758 0.57743 0.92998 0.092472 0.33672 -0.33534 0.69007 -0.22621 0.060232 0.37718 0.78736 0.4073 0.35125 0.23634 0.31725 -0.48811 -0.61175 0.38904 0.090544 0.28888 0.98919 0.10074 -0.098512 -0.30365 0.015721 -0.50586 -0.19525 -0.52803 -0.29265 -0.16678 0.45616 -0.38369 0.87943 0.22334 -0.45323 -0.0061606 -0.89122 0.038814 0.18811 -0.015336 -0.5435 0.051397 -0.63383 0.48874 0.0025743 0.67381 0.3675 -0.60703 0.77101 0.23671 -0.28173 0.13739 0.26169 -0.027572 0.041205 -0.18433 0.22118 0.036583 -0.010206 -0.051637 -0.37453 0.084725 0.088218 -0.14172 -0.13181 -0.3912 0.28626 0.017823 0.096133 -0.067653 -0.25324 0.22871 0.0079201 0.16535 -0.54055 0.028441 0.031438 0.41075 -0.06551 0.33179 -0.36896 0.10548 -0.34933 0.3263 0.36096 -0.7507 0.13724 0.35807 0.39544 0.35557 0.055007 0.047034 -0.33235 -0.19321 0.048333 -0.48617 -0.97505 0.34356 -0.43531 0.31126 -0.65291 -0.1603 -0.2436 0.22024 -0.0048976 -0.37302 0.25829 -0.34729 -0.64741 -0.09673 0.1345 0.24621 -0.04199 0.4026 -0.062542 0.18738 -0.038756 0.062448 0.0056682 -0.060543
mouse -0.77104 -0.0090132 0.54031 -0.71836 0.046281 0.18163 -0.8929 -0.37488 0.60709 -0.54258 -0.13283 -0.65515 0.051732 -0.13114 0.46161 0.13077 0.059206 -0.19101 -0.16219 0.69136 -0.07252 -0.48618 -0.29782 -0.19671 -0.063346 -0.0033854 0.41265 -0.27782 0.69297 0.25604 -0.061042 -0.14098 -0.61827 -0.46483 0.24726 0.18958 0.29756 0.22066 -0.64112 0.43323 -0.55666 0.49665 -0.82412 -0.70169 0.074583 0.091207 0.79017 -0.77936 0.27372 -0.15204 0.034331 0.18085 -0.1342 0.29796 0.40036 0.50507 0.5315 -0.6219 -0.22143 -0.30198 -0.061854 -0.24617 0.56417 0.15636 -0.064063 0.53579 -0.069843 0.074281 0.61697 -0.49246 0.32075 0.99509 0.081807 -0.011526 -0.25407 -0.094774 0.16511 0.41696 0.57056 -0.18384 0.00032468 -0.14332 -0.42283 -0.18516 -0.066571 0.17221 -0.8185 0.68974 -0.18232 -0.8172 -0.15115 0.44278 -0.43799 0.33297 0.51748 0.269 -0.42284 0.093373 -0.19843 -0.60158 0.11445 0.37908 -0.23874 -0.46648 0.17096 -0.01426 -0.47984 -0.1022 -0.36678 0.18753 -0.24488 0.58104 -0.41039 0.5137 0.0063194 -0.57246 0.083147 0.40127 -0.58902 0.085279 -0.69 -0.22136 0.52282 -0.2093 -0.49666 0.10162 -0.12446 0.51085 0.22256 -0.09586 0.036708 -0.16975 -0.26476 0.2515 0.092443 0.01604 0.60851 0.070477 -0.24022 -0.57676 -0.039784 0.62126 -0.94855 -0.21973 0.16413 0.37564 -0.13313 -0.42531 -0.75168 -0.13861 -0.93376 0.43454 -0.24289 -0.013258 0.2462 -0.54347 0.16153 0.012198 -0.09512 0.52306 0.48714 0.21467 0.22272 -0.057625 0.16902 0.40828 -0.13839 0.58738 0.12179 -0.1779 -0.31081 -0.17831 -0.097866 0.3473 0.24848 -0.6853 -0.015508 -0.31688 -0.19385 -0.59109 -0.058482 -0.025751 0.63288 -0.056592 0.052991 -0.71242 0.29352 -0.6435 0.046981 -0.35109 0.30984 0.067425 -0.32858 -0.11842 0.11178 0.66108 -0.098965 -0.316 -0.53654 -0.60099 1.1391 0.36091 0.62074 -0.022354 0.044383 0.02993 -0.46947 0.30028 -0.27446 0.35449 0.096188 -0.25783 0.40365 -0.14721 0.29528 0.43721 0.00064668 -0.11186 -0.098606 0.16483 -1.0805 -0.13331 -0.49963 0.032302 -0.0509 -0.20468 0.13143 0.54802 -0.052893 -0.41758 0.075523 0.439 -0.74995 -0.33455 0.34395 0.07297 -0.077186 0.89658 0.085576 -0.013712 0.41595 -0.53633 -0.00024174 0.1911 -1.0022 -0.14037 -0.68392 -0.21254 -0.47324 0.14079 -0.25114 -0.19003 -0.34558 -0.39611 0.26318 0.41706 0.7503 0.13442 0.075623 -0.13725 -0.011588 -0.33431 0.1269 -0.042402 0.0096563 0.15704 0.20184 -0.24132 -0.22802 0.37103 0.020188 -0.042927 -0.50922 -0.45103 -0.42944 -0.045431 -1.3081 -0.14225 -0.57717 0.05202 -0.79522 0.40081 -0.35974 0.11413 -0.99542 -0.49902 0.27657 -0.13619 -0.2576 -0.50733 -0.20506 -0.57481 0.086136 -0.32172 -0.28796 0.035187 0.57929 0.027985 0.55163 -0.42922
ear -0.43982 -0.20805 -0.80559 -0.28563 0.24429 -0.3146 0.56078 -0.42534 0.26955 -0.94802 -0.46907 0.29169 -0.28084 0.099466 0.0078763 0.25781 -0.31832 0.074097 -0.24085 -0.21167 0.13463 -0.043402 0.23096 0.11798 -0.58273 -0.10064 -0.50188 -0.74401 0.3131 0.35477 -0.47571 -0.27374 -0.66939 0.48978 -0.51273 0.20429 -0.17227 -0.337 -0.21466 0.59373 0.29472 0.25358 -0.83992 0.0049176 -0.032663 0.25541 0.24144 -0.13662 0.30358 0.36388 0.39894 0.35181 0.37619 0.077286 -0.18987 -0.54281 0.049839 0.16127 0.67594 0.04363 0.13561 -0.47001 0.28466 0.53516 -0.16052 0.042959 0.31343 -0.33028 0.34237 0.41454 0.30633 -0.070911 0.8464 0.42698 -0.055093 -0.76586 0.29724 -0.39719 -0.19142 -0.14855 0.52005 -0.32812 0.25231 -0.14958 -0.34755 0.21016 -0.022842 -0.4636 -0.37484 -0.10351 0.18138 0.16426 -0.74739 0.10504 0.11033 0.27609 -0.32314 -0.11918 0.47302 -0.079044 -0.052768 0.077847 -0.23073 -0.10974 -0.1296 0.22618 -0.1965 0.026782 -0.79693 0.81316 0.1514 0.75005 -0.24478 0.17487 -0.012539 -0.20209 -0.90657 0.06534 -0.31171 0.059202 -0.85242 -0.3825 -0.23642 -0.24103 -0.72839 -0.31219 -0.22649 0.040534 0.17252 -0.63325 0.38685 -0.11881 0.58827 -0.078729 -0.64079 0.2569 0.31556 0.24479 -0.24594 -0.29145 0.29942 0.15773 -0.15681 -0.21636 0.18963 0.64018 0.27169 -0.066514 -0.31027 -0.087372 -0.44165 -0.11465 -0.027997 -0.24011 0.019974 0.2579 0.12763 -0.03283 0.41169 0.41048 0.13276 0.091548 0.44983 -0.48479 0.61383 0.070207 -0.10865 -0.15847 0.46509 -0.43486 -0.013236 0.71272 0.45187 -0.23926 0.54918 -0.6593 0.11193 0.053551 -0.982 -0.47501 -0.056658 -0.097719 0.18126 -0.62527 -1.0553 -0.28226 0.45441 0.20531 0.26663 -0.26009 -0.33552 -0.17095 -0.26707 0.66443 -0.30988 0.64603 0.045279 -0.34493 -0.215 0.28445 1.2435 0.9535 0.63593 -0.26263 -0.51883 0.87466 -0.38226 0.45991 -0.017541 0.04339 0.63544 -0.79696 0.14169 0.0084047 0.28429 0.0091232 0.020391 -0.77973 -0.0014735 0.091966 0.099079 -0.36741 -0.26307 0.21928 0.34717 0.10547 -0.10828 -0.16602 0.22775 -0.19148 0.66344 0.0086598 0.29181 -0.26866 -0.29774 -0.052433 0.308 -0.35491 -0.52048 -0.33389 0.56116 -0.23436 0.14856 0.079886 -0.72903 -0.97876 -0.33113 0.24793 0.015545 -0.37333 0.42296 0.43996 0.060454 -0.34996 0.079848 0.58913 0.68356 -0.12522 -0.48538 0.030462 0.0086492 -0.5611 0.21583 0.87369 -0.22019 0.16405 -0.18845 -0.047853 -1.1589 0.71813 0.19609 -0.081219 0.3487 -0.52296 -0.29391 -0.38236 -0.74472 0.14764 -0.32266 -0.42729 -0.22286 -0.052573 0.14914 -0.037877 -0.381 0.49093 0.15788 -0.36762 -0.1887 -0.11634 -0.46508 -0.37798 -0.0020629 -0.3367 0.015426 -0.49649 0.48332 0.53964 0.21984 0.098529
drum -0.1569 0.41032 -0.88532 -0.12132 0.13862 -0.19686 0.47485 0.6499 -0.10032 -0.2702 -0.10633 -0.19699 0.21143 -0.014187 0.59408 -0.24904 -0.24026 -0.051154 0.047229 -0.14034 0.51306 0.23021 -0.64068 0.34477 0.16789 0.088848 0.42735 -0.46095 0.14348 0.66754 -0.36577 -0.63359 0.0054517 0.19925 -0.43517 0.5592 -0.096195 0.093403 0.079108 0.82088 -0.021509 0.047517 -0.68122 -0.18007 0.35129 0.77488 0.77107 -0.35144 0.48498 -0.091516 0.6318 1.1347 0.24655 0.53827 -0.40486 0.090062 0.23171 -0.063078 0.21115 0.69824 0.64956 0.067428 0.89104 0.22115 0.37172 0.0090011 0.5187 -0.12593 0.44625 0.25116 -0.036042 0.20968 0.72214 0.24864 0.096074 0.42734 0.53091 -0.21549 0.35956 0.19548 0.93017 -0.14234 0.043165 -0.57454 -0.062344 -0.63229 0.6179 0.50021 -0.9269 -0.14125 1.5475 0.037591 0.35927 -0.28013 -0.070761 0.42265 0.088095 -0.16181 0.35162 -0.20887 -0.57525 0.48519 0.075269 -0.76237 0.36617 -0.052529 -0.22554 -0.39864 -0.40074 0.26116 0.47877 -0.11014 -0.22883 0.74718 -0.24561 -0.68455 -0.65502 -0.076659 0.032466 -0.28719 -0.15608 -0.20043 0.15579 -0.35924 0.12012 0.059155 0.30498 0.031754 -0.26822 -0.1996 -0.25095 0.3132 0.40016 -0.75848 0.1263 0.035851 0.51701 0.21359 0.20385 -0.0096519 0.12367 -0.64084 -0.073074 -0.51166 0.036825 0.12734 -0.22077 -0.14479 0.17227 0.2914 0.034384 0.58692 0.29519 -0.16903 0.56788 0.017256 0.043716 -0.20047 -0.31592 0.18134 0.54043 -0.33633 -0.66755 -0.27674 0.12504 0.25182 0.51503 0.31763 0.12578 0.26739 -0.041415 0.048753 -0.03145 -0.013457 0.125 -0.54127 0.19119 -0.087507 -0.55961 0.27552 -0.7624 0.18618 0.15645 0.0099354 -0.38719 -0.3528 -0.098428 0.3023 0.2931 -0.65485 0.64065 -0.25965 0.19953 0.49028 0.29555 0.1994 0.31431 -0.23766 -0.03962 -0.21711 0.54149 0.64483 0.53713 -0.057906 0.090627 0.29943 0.15713 0.60774 -0.20308 -0.25751 0.066189 0.24517 0.92021 0.030108 -0.092278 -0.20981 -0.20477 -0.57369 0.032971 0.35632 0.0045407 0.24169 -0.28724 0.32291 0.3692 -0.21849 -0.27418 0.4254 -0.062905 -0.47948 0.41026 0.15315 0.016501 0.0094402 0.25671 0.0033504 -0.55271 -0.23666 -0.53479 -0.46313 -0.13096 0.12942 -0.27211 0.1908 -0.38224 -0.21943 0.26654 0.58406 -0.31248 0.16144 0.30418 -0.37284 0.84876 -0.35403 0.51267 0.083776 0.37901 0.095646 -0.11638 -0.52068 -0.050901 -0.087953 -0.15145 0.23793 0.11178 -0.59933 -0.53515 0.34307 -0.064412 0.20117 -0.17098 0.20845 0.61837 -0.24173 0.02955 -0.0011139 -1.0546 0.19765 -0.55074 -0.51333 -0.13611 -0.35169 -0.45182 0.44574 0.088587 0.14596 -0.63 0.25035 -0.073538 -0.36391 0.42073 -0.24329 -0.26017 0.57557 0.11125 0.73517 0.59366 0.18495 -0.21838 0.19514
hammer 0.24715 0.19081 -0.22681 0.25621 0.29314 0.43315 -0.48915 0.23493 -0.22346 -0.37204 0.081313 -0.55561 0.30253 -0.17189 -0.35126 -0.025339 -0.308 0.2774 -0.043986 0.1051 0.62787 -0.17198 0.51358 0.2608 0.25943 0.079748 -0.14283 -0.25672 0.31856 -0.15347 0.49506 -0.29692 0.24487 0.5298 -0.5075 -0.082696 -0.69339 0.39905 -0.48892 0.20812 0.15854 0.40029 -0.28511 -0.23919 0.45468 0.17291 -0.67013 -0.46194 -0.17629 0.017425 0.41963 0.13367 0.16652 -0.40467 -0.13029 0.24624 -0.73591 0.63774 0.053275 -0.094822 0.36179 0.48115 0.13355 0.087544 -0.15527 -0.44625 -0.25087 0.055917 0.22114 -0.69502 -0.013159 -0.011834 -0.28188 0.10577 -0.49373 0.053151 -0.18627 -0.5196 0.039594 -0.15803 -0.29996 -0.40618 0.3697 -0.50638 -0.088777 0.16901 -0.00244 0.34971 -0.14572 -0.81146 0.38769 0.27662 -0.25324 -0.33386 0.43827 -0.87798 -0.10791 -0.28079 0.098083 -0.40812 -0.69843 -0.27614 -0.15093 -0.010001 0.88129 -0.48528 -0.0016805 -0.5396 0.086721 -0.65344 -0.053562 0.44176 -0.51833 0.32312 0.1514 0.081344 -0.97113 0.01383 0.41482 -0.34554 0.082017 -0.055784 -0.20237 -0.29459 -0.056478 0.76937 0.58279 0.55053 -0.20128 -0.47078 -0.19252 0.38671 0.34407 -0.28207 -0.058901 0.21022 -0.61889 0.35096 0.32385 0.33984 -0.079532 0.0099393 -0.53951 -0.30263 -0.26009 0.066317 0.27459 0.033704 -0.032616 -0.0020364 -0.015675 0.18315 0.049039 -0.8855 -0.07708 0.20971 -0.02092 -0.61316 -0.36896 0.39189 0.12989 0.21897 -0.095569 -0.51716 0.054231 0.58373 0.11633 0.22994 0.57141 0.13418 -0.044989 0.26619 -0.048055 -0.34283 0.61254 0.076239 0.51235 -0.073603 0.20134 0.028534 0.18977 0.12543 0.035427 0.51294 0.074816 -0.076825 -0.043979 -0.058063 0.55812 -0.12892 0.24795 -0.24751 0.21549 0.091684 -0.25275 0.18429 -0.086389 0.00078596 0.13681 -0.29373 0.56059 0.31401 0.51707 -0.25132 -0.23346 -0.15364 0.43538 -0.26294 -0.25312 0.35535 0.22268 -0.13354 0.25837 0.30773 0.65032 -0.34756 0.67918 0.30678 -0.51335 -0.20704 -0.10388 -0.4595 0.55864 -0.29802 -0.70089 -0.091375 -0.20509 -0.25269 -0.14563 -0.59135 0.079598 0.021948 -0.17396 -0.086922 0.075189 0.15834 -0.36901 -0.165 0.11056 -0.25182 0.043579 0.17033 -0.21521 -0.38184 -0.21439 -0.31401 -0.32393 0.012026 -0.7988 -0.14221 -0.34849 0.2077 -0.093467 -0.59066 0.38514 -0.25906 -0.25514 -0.38483 -0.38884 0.031985 -0.25209 -0.58639 0.42034 0.4416 -0.43744 0.26952 -0.82597 0.46105 -0.43702 0.078184 -0.19205 -0.54897 -0.17091 0.33962 -0.21362 -0.57641 -0.63841 -0.49556 0.15405 -0.3007 0.06898 -0.15985 -0.66015 0.29026 0.52313 0.41403 -0.27805 -0.41415 -0.29801 0.20652 -0.49064 -0.20499 0.046058 -0.00061687 -0.20932 0.054903 0.53013 0.24316 -0.086038 0.63675
dome 0.81873 0.11949 -0.060125 -0.36224 0.19689 0.60272 0.43479 0.03979 -0.50813 -0.38868 0.42442 0.5586 0.47083 0.2363 -0.015025 0.60502 -0.65442 0.40823 0.46675 -0.31591 -0.21164 0.046268 0.077144 0.078297 0.11659 -0.8 0.16847 -0.12634 -0.26955 0.045361 0.81581 0.16074 -0.83383 0.078349 0.0026225 0.4114 -0.55702 -0.10315 0.43812 0.56818 -0.039612 0.46854 -0.60609 0.74813 -0.15343 -0.17375 -0.10953 0.17301 -0.029734 0.066036 -0.22848 0.79354 -0.34111 -0.11816 -0.4443 0.16582 0.26236 0.51272 0.36675 0.022215 -0.34725 -0.19247 0.44112 -0.10865 -0.37907 0.29851 -0.19217 -0.089129 0.33424 -0.24731 0.094418 0.33719 0.51131 -0.51454 -0.29754 -0.049836 0.34512 -0.24934 0.098311 -0.68987 -0.60424 0.29727 -0.73733 -0.048372 -0.039016 0.44287 -0.0828 -0.084316 0.28914 -0.47779 0.77745 -0.047609 0.029851 0.617 -0.66644 0.0042429 0.20573 -0.10666 0.4807 -0.14624 -0.52076 0.11472 0.14639 0.15175 0.19261 0.33953 -0.06977 0.70405 -0.11005 0.15049 -0.42368 0.023111 -0.1637 0.31718 -0.077777 0.25909 -0.40856 0.45437 0.53454 0.33998 0.47363 -0.78366 0.34142 0.62757 -0.058115 -0.86636 -0.080349 0.63433 0.019229 0.4948 -0.26113 1.3887 -0.12422 0.58639 1.0212 -0.059774 -0.24304 -0.58029 -0.26491 -0.38163 0.32176 -0.15678 0.46047 -0.14491 0.12563 -0.73409 0.15255 -0.065024 0.16278 -0.24957 0.30069 0.067898 0.22758 -0.90901 0.16615 0.67761 -0.23235 -0.28054 -0.72473 0.012627 -0.57178 -0.25993 -0.10693 -0.2546 0.1348 0.0014777 -0.25862 0.52165 0.92307 -0.53524 0.40126 -0.21468 0.59272 -0.34825 0.1441 0.4416 -0.16833 0.54132 -0.31255 -0.021775 0.44944 0.97286 0.1904 -0.38442 -0.10914 0.081083 0.6046 0.31885 -0.18545 -0.10194 0.74953 -0.00064732 0.16367 0.50414 -0.31324 0.1222 0.27244 0.42997 0.008968 0.4656 1.244 -0.26208 -0.44869 -0.062263 -0.27204 0.28523 0.012635 -0.94602 0.14876 -0.19269 0.47795 0.47337 0.16629 0.099242 -0.16997 0.013289 -0.17253 -0.3117 0.033593 0.30197 0.61346 0.42639 0.26118 -0.71278 -0.39947 -0.46091 -0.48956 0.24849 -0.36137 0.18038 0.081456 0.3371 0.4657 -0.31179 -0.25862 -0.93159 0.46391 -0.10509 -0.019992 0.036553 -0.36272 -0.12808 -0.23244 -0.27949 -0.29388 -0.91998 -0.42933 -0.14502 -0.13532 0.34606 0.067788 -0.44132 -0.21004 -0.21897 -0.16965 -0.25898 0.064627 -0.18413 0.11043 -0.072721 -0.20352 -0.30043 0.37476 0.2511 -0.00061991 -0.5742 -0.0058864 0.066039 0.87836 -0.34247 -0.20937 -0.42286 0.54265 -0.1612 -0.62284 0.007463 -0.81605 -0.037978 -0.26264 -0.024463 -0.0066196 -0.14372 -0.39761 -0.50499 -0.17873 -0.083571 -0.58928 0.43174 0.24863 -0.91638 0.14916 0.19038 -0.17167 0.31331 -0.1259 -0.189 0.73239 0.2177 -0.46282 -0.70025
